digraph Tree {
node [shape=box] ;
0 [label="NumberOfTimes90DaysLate <= 0.5\nmse = 0.062\nsamples = 150000\nvalue = 0.067"] ;
1 [label="RevolvingUtilizationOfUnsecuredLines <= 0.599\nmse = 0.044\nsamples = 141662\nvalue = 0.046"] ;
0 -> 1 [labeldistance=2.5, labelangle=45, headlabel="True"] ;
2 [label="NumberOfTime30-59DaysPastDueNotWorse <= 0.5\nmse = 0.025\nsamples = 112282\nvalue = 0.025"] ;
1 -> 2 ;
3 [label="NumberOfTime60-89DaysPastDueNotWorse <= 0.5\nmse = 0.018\nsamples = 100200\nvalue = 0.018"] ;
2 -> 3 ;
4 [label="RevolvingUtilizationOfUnsecuredLines <= 0.296\nmse = 0.016\nsamples = 98792\nvalue = 0.016"] ;
3 -> 4 ;
5 [label="NumberRealEstateLoansOrLines <= 3.5\nmse = 0.012\nsamples = 81700\nvalue = 0.012"] ;
4 -> 5 ;
6 [label="age <= 54.5\nmse = 0.011\nsamples = 79893\nvalue = 0.011"] ;
5 -> 6 ;
7 [label="NumberOfOpenCreditLinesAndLoans <= 46.0\nmse = 0.015\nsamples = 37384\nvalue = 0.015"] ;
6 -> 7 ;
8 [label="RevolvingUtilizationOfUnsecuredLines <= 0.12\nmse = 0.015\nsamples = 37377\nvalue = 0.015"] ;
7 -> 8 ;
9 [label="NumberRealEstateLoansOrLines <= 2.5\nmse = 0.012\nsamples = 26083\nvalue = 0.013"] ;
8 -> 9 ;
10 [label="age <= 34.5\nmse = 0.012\nsamples = 24890\nvalue = 0.012"] ;
9 -> 10 ;
11 [label="NumberOfOpenCreditLinesAndLoans <= 11.5\nmse = 0.018\nsamples = 4879\nvalue = 0.019"] ;
10 -> 11 ;
12 [label="NumberOfDependents <= 3.5\nmse = 0.016\nsamples = 4471\nvalue = 0.017"] ;
11 -> 12 ;
13 [label="RevolvingUtilizationOfUnsecuredLines <= 0.0\nmse = 0.016\nsamples = 4446\nvalue = 0.016"] ;
12 -> 13 ;
14 [label="RevolvingUtilizationOfUnsecuredLines <= 0.0\nmse = 0.023\nsamples = 1333\nvalue = 0.024"] ;
13 -> 14 ;
15 [label="mse = 0.023\nsamples = 1332\nvalue = 0.023"] ;
14 -> 15 ;
16 [label="mse = 0.0\nsamples = 1\nvalue = 1.0"] ;
14 -> 16 ;
17 [label="NumberOfDependents <= 0.379\nmse = 0.012\nsamples = 3113\nvalue = 0.013"] ;
13 -> 17 ;
18 [label="mse = 0.01\nsamples = 2388\nvalue = 0.01"] ;
17 -> 18 ;
19 [label="mse = 0.022\nsamples = 725\nvalue = 0.022"] ;
17 -> 19 ;
20 [label="RevolvingUtilizationOfUnsecuredLines <= 0.111\nmse = 0.106\nsamples = 25\nvalue = 0.12"] ;
12 -> 20 ;
21 [label="NumberOfOpenCreditLinesAndLoans <= 3.5\nmse = 0.076\nsamples = 24\nvalue = 0.083"] ;
20 -> 21 ;
22 [label="mse = 0.204\nsamples = 7\nvalue = 0.286"] ;
21 -> 22 ;
23 [label="mse = 0.0\nsamples = 17\nvalue = 0.0"] ;
21 -> 23 ;
24 [label="mse = 0.0\nsamples = 1\nvalue = 1.0"] ;
20 -> 24 ;
25 [label="MonthlyIncome <= 2984.0\nmse = 0.04\nsamples = 408\nvalue = 0.042"] ;
11 -> 25 ;
26 [label="MonthlyIncome <= 2930.5\nmse = 0.1\nsamples = 62\nvalue = 0.113"] ;
25 -> 26 ;
27 [label="RevolvingUtilizationOfUnsecuredLines <= 0.107\nmse = 0.076\nsamples = 60\nvalue = 0.083"] ;
26 -> 27 ;
28 [label="mse = 0.064\nsamples = 58\nvalue = 0.069"] ;
27 -> 28 ;
29 [label="mse = 0.25\nsamples = 2\nvalue = 0.5"] ;
27 -> 29 ;
30 [label="mse = 0.0\nsamples = 2\nvalue = 1.0"] ;
26 -> 30 ;
31 [label="DebtRatio <= 0.483\nmse = 0.028\nsamples = 346\nvalue = 0.029"] ;
25 -> 31 ;
32 [label="NumberOfOpenCreditLinesAndLoans <= 13.5\nmse = 0.012\nsamples = 241\nvalue = 0.012"] ;
31 -> 32 ;
33 [label="mse = 0.0\nsamples = 104\nvalue = 0.0"] ;
32 -> 33 ;
34 [label="mse = 0.021\nsamples = 137\nvalue = 0.022"] ;
32 -> 34 ;
35 [label="DebtRatio <= 0.486\nmse = 0.062\nsamples = 105\nvalue = 0.067"] ;
31 -> 35 ;
36 [label="mse = 0.0\nsamples = 1\nvalue = 1.0"] ;
35 -> 36 ;
37 [label="mse = 0.054\nsamples = 104\nvalue = 0.058"] ;
35 -> 37 ;
38 [label="NumberRealEstateLoansOrLines <= 1.5\nmse = 0.01\nsamples = 20011\nvalue = 0.01"] ;
10 -> 38 ;
39 [label="MonthlyIncome <= 6531.5\nmse = 0.009\nsamples = 14567\nvalue = 0.009"] ;
38 -> 39 ;
40 [label="MonthlyIncome <= 6529.0\nmse = 0.011\nsamples = 6986\nvalue = 0.011"] ;
39 -> 40 ;
41 [label="MonthlyIncome <= 6164.0\nmse = 0.011\nsamples = 6985\nvalue = 0.011"] ;
40 -> 41 ;
42 [label="mse = 0.01\nsamples = 6546\nvalue = 0.01"] ;
41 -> 42 ;
43 [label="mse = 0.027\nsamples = 439\nvalue = 0.027"] ;
41 -> 43 ;
44 [label="mse = 0.0\nsamples = 1\nvalue = 1.0"] ;
40 -> 44 ;
45 [label="DebtRatio <= 0.04\nmse = 0.006\nsamples = 7581\nvalue = 0.006"] ;
39 -> 45 ;
46 [label="DebtRatio <= 0.04\nmse = 0.013\nsamples = 828\nvalue = 0.013"] ;
45 -> 46 ;
47 [label="mse = 0.012\nsamples = 827\nvalue = 0.012"] ;
46 -> 47 ;
48 [label="mse = 0.0\nsamples = 1\nvalue = 1.0"] ;
46 -> 48 ;
49 [label="NumberOfDependents <= 2.5\nmse = 0.006\nsamples = 6753\nvalue = 0.006"] ;
45 -> 49 ;
50 [label="mse = 0.006\nsamples = 5769\nvalue = 0.006"] ;
49 -> 50 ;
51 [label="mse = 0.001\nsamples = 984\nvalue = 0.001"] ;
49 -> 51 ;
52 [label="NumberOfOpenCreditLinesAndLoans <= 16.5\nmse = 0.014\nsamples = 5444\nvalue = 0.014"] ;
38 -> 52 ;
53 [label="DebtRatio <= 8827.0\nmse = 0.013\nsamples = 5016\nvalue = 0.013"] ;
52 -> 53 ;
54 [label="RevolvingUtilizationOfUnsecuredLines <= 0.06\nmse = 0.012\nsamples = 5009\nvalue = 0.013"] ;
53 -> 54 ;
55 [label="mse = 0.01\nsamples = 3486\nvalue = 0.01"] ;
54 -> 55 ;
56 [label="mse = 0.018\nsamples = 1523\nvalue = 0.018"] ;
54 -> 56 ;
57 [label="DebtRatio <= 8991.5\nmse = 0.122\nsamples = 7\nvalue = 0.143"] ;
53 -> 57 ;
58 [label="mse = 0.0\nsamples = 1\nvalue = 1.0"] ;
57 -> 58 ;
59 [label="mse = 0.0\nsamples = 6\nvalue = 0.0"] ;
57 -> 59 ;
60 [label="age <= 43.5\nmse = 0.032\nsamples = 428\nvalue = 0.033"] ;
52 -> 60 ;
61 [label="NumberOfOpenCreditLinesAndLoans <= 18.5\nmse = 0.062\nsamples = 121\nvalue = 0.066"] ;
60 -> 61 ;
62 [label="mse = 0.107\nsamples = 49\nvalue = 0.122"] ;
61 -> 62 ;
63 [label="mse = 0.027\nsamples = 72\nvalue = 0.028"] ;
61 -> 63 ;
64 [label="DebtRatio <= 3155.0\nmse = 0.019\nsamples = 307\nvalue = 0.02"] ;
60 -> 64 ;
65 [label="mse = 0.014\nsamples = 291\nvalue = 0.014"] ;
64 -> 65 ;
66 [label="mse = 0.109\nsamples = 16\nvalue = 0.125"] ;
64 -> 66 ;
67 [label="age <= 27.5\nmse = 0.027\nsamples = 1193\nvalue = 0.028"] ;
9 -> 67 ;
68 [label="mse = 0.0\nsamples = 1\nvalue = 1.0"] ;
67 -> 68 ;
69 [label="RevolvingUtilizationOfUnsecuredLines <= 0.0\nmse = 0.026\nsamples = 1192\nvalue = 0.027"] ;
67 -> 69 ;
70 [label="RevolvingUtilizationOfUnsecuredLines <= 0.0\nmse = 0.05\nsamples = 207\nvalue = 0.053"] ;
69 -> 70 ;
71 [label="MonthlyIncome <= 500.5\nmse = 0.046\nsamples = 206\nvalue = 0.049"] ;
70 -> 71 ;
72 [label="MonthlyIncome <= 0.5\nmse = 0.222\nsamples = 3\nvalue = 0.333"] ;
71 -> 72 ;
73 [label="mse = 0.0\nsamples = 2\nvalue = 0.0"] ;
72 -> 73 ;
74 [label="mse = 0.0\nsamples = 1\nvalue = 1.0"] ;
72 -> 74 ;
75 [label="age <= 35.5\nmse = 0.042\nsamples = 203\nvalue = 0.044"] ;
71 -> 75 ;
76 [label="mse = 0.118\nsamples = 22\nvalue = 0.136"] ;
75 -> 76 ;
77 [label="mse = 0.032\nsamples = 181\nvalue = 0.033"] ;
75 -> 77 ;
78 [label="mse = 0.0\nsamples = 1\nvalue = 1.0"] ;
70 -> 78 ;
79 [label="RevolvingUtilizationOfUnsecuredLines <= 0.088\nmse = 0.021\nsamples = 985\nvalue = 0.021"] ;
69 -> 79 ;
80 [label="MonthlyIncome <= 2263.0\nmse = 0.017\nsamples = 820\nvalue = 0.017"] ;
79 -> 80 ;
81 [label="MonthlyIncome <= 2029.0\nmse = 0.076\nsamples = 24\nvalue = 0.083"] ;
80 -> 81 ;
82 [label="mse = 0.0\nsamples = 20\nvalue = 0.0"] ;
81 -> 82 ;
83 [label="mse = 0.25\nsamples = 4\nvalue = 0.5"] ;
81 -> 83 ;
84 [label="age <= 30.5\nmse = 0.015\nsamples = 796\nvalue = 0.015"] ;
80 -> 84 ;
85 [label="mse = 0.099\nsamples = 9\nvalue = 0.111"] ;
84 -> 85 ;
86 [label="mse = 0.014\nsamples = 787\nvalue = 0.014"] ;
84 -> 86 ;
87 [label="RevolvingUtilizationOfUnsecuredLines <= 0.088\nmse = 0.041\nsamples = 165\nvalue = 0.042"] ;
79 -> 87 ;
88 [label="mse = 0.0\nsamples = 1\nvalue = 1.0"] ;
87 -> 88 ;
89 [label="NumberOfDependents <= 2.5\nmse = 0.035\nsamples = 164\nvalue = 0.037"] ;
87 -> 89 ;
90 [label="mse = 0.022\nsamples = 134\nvalue = 0.022"] ;
89 -> 90 ;
91 [label="mse = 0.09\nsamples = 30\nvalue = 0.1"] ;
89 -> 91 ;
92 [label="RevolvingUtilizationOfUnsecuredLines <= 0.12\nmse = 0.021\nsamples = 11294\nvalue = 0.022"] ;
8 -> 92 ;
93 [label="mse = 0.0\nsamples = 1\nvalue = 1.0"] ;
92 -> 93 ;
94 [label="NumberOfOpenCreditLinesAndLoans <= 8.5\nmse = 0.021\nsamples = 11293\nvalue = 0.022"] ;
92 -> 94 ;
95 [label="MonthlyIncome <= 6584.0\nmse = 0.016\nsamples = 6195\nvalue = 0.016"] ;
94 -> 95 ;
96 [label="MonthlyIncome <= 6579.5\nmse = 0.02\nsamples = 3460\nvalue = 0.02"] ;
95 -> 96 ;
97 [label="NumberRealEstateLoansOrLines <= 1.5\nmse = 0.02\nsamples = 3456\nvalue = 0.02"] ;
96 -> 97 ;
98 [label="DebtRatio <= 0.013\nmse = 0.017\nsamples = 2968\nvalue = 0.018"] ;
97 -> 98 ;
99 [label="mse = 0.044\nsamples = 153\nvalue = 0.046"] ;
98 -> 99 ;
100 [label="mse = 0.016\nsamples = 2815\nvalue = 0.016"] ;
98 -> 100 ;
101 [label="age <= 28.5\nmse = 0.034\nsamples = 488\nvalue = 0.035"] ;
97 -> 101 ;
102 [label="mse = 0.24\nsamples = 10\nvalue = 0.4"] ;
101 -> 102 ;
103 [label="mse = 0.026\nsamples = 478\nvalue = 0.027"] ;
101 -> 103 ;
104 [label="RevolvingUtilizationOfUnsecuredLines <= 0.212\nmse = 0.188\nsamples = 4\nvalue = 0.25"] ;
96 -> 104 ;
105 [label="mse = 0.0\nsamples = 3\nvalue = 0.0"] ;
104 -> 105 ;
106 [label="mse = 0.0\nsamples = 1\nvalue = 1.0"] ;
104 -> 106 ;
107 [label="DebtRatio <= 7331.0\nmse = 0.01\nsamples = 2735\nvalue = 0.01"] ;
95 -> 107 ;
108 [label="RevolvingUtilizationOfUnsecuredLines <= 0.273\nmse = 0.01\nsamples = 2729\nvalue = 0.01"] ;
107 -> 108 ;
109 [label="MonthlyIncome <= 74250.0\nmse = 0.008\nsamples = 2469\nvalue = 0.008"] ;
108 -> 109 ;
110 [label="mse = 0.007\nsamples = 2461\nvalue = 0.007"] ;
109 -> 110 ;
111 [label="mse = 0.109\nsamples = 8\nvalue = 0.125"] ;
109 -> 111 ;
112 [label="RevolvingUtilizationOfUnsecuredLines <= 0.273\nmse = 0.03\nsamples = 260\nvalue = 0.031"] ;
108 -> 112 ;
113 [label="mse = 0.0\nsamples = 1\nvalue = 1.0"] ;
112 -> 113 ;
114 [label="mse = 0.026\nsamples = 259\nvalue = 0.027"] ;
112 -> 114 ;
115 [label="RevolvingUtilizationOfUnsecuredLines <= 0.253\nmse = 0.139\nsamples = 6\nvalue = 0.167"] ;
107 -> 115 ;
116 [label="mse = 0.0\nsamples = 5\nvalue = 0.0"] ;
115 -> 116 ;
117 [label="mse = 0.0\nsamples = 1\nvalue = 1.0"] ;
115 -> 117 ;
118 [label="RevolvingUtilizationOfUnsecuredLines <= 0.121\nmse = 0.028\nsamples = 5098\nvalue = 0.028"] ;
94 -> 118 ;
119 [label="MonthlyIncome <= 3590.0\nmse = 0.145\nsamples = 17\nvalue = 0.176"] ;
118 -> 119 ;
120 [label="MonthlyIncome <= 2784.0\nmse = 0.222\nsamples = 3\nvalue = 0.667"] ;
119 -> 120 ;
121 [label="mse = 0.0\nsamples = 1\nvalue = 0.0"] ;
120 -> 121 ;
122 [label="mse = 0.0\nsamples = 2\nvalue = 1.0"] ;
120 -> 122 ;
123 [label="RevolvingUtilizationOfUnsecuredLines <= 0.121\nmse = 0.066\nsamples = 14\nvalue = 0.071"] ;
119 -> 123 ;
124 [label="mse = 0.0\nsamples = 13\nvalue = 0.0"] ;
123 -> 124 ;
125 [label="mse = 0.0\nsamples = 1\nvalue = 1.0"] ;
123 -> 125 ;
126 [label="MonthlyIncome <= 5026.0\nmse = 0.027\nsamples = 5081\nvalue = 0.028"] ;
118 -> 126 ;
127 [label="MonthlyIncome <= 5021.0\nmse = 0.038\nsamples = 1589\nvalue = 0.04"] ;
126 -> 127 ;
128 [label="DebtRatio <= 0.934\nmse = 0.038\nsamples = 1588\nvalue = 0.039"] ;
127 -> 128 ;
129 [label="mse = 0.03\nsamples = 1290\nvalue = 0.031"] ;
128 -> 129 ;
130 [label="mse = 0.068\nsamples = 298\nvalue = 0.074"] ;
128 -> 130 ;
131 [label="mse = 0.0\nsamples = 1\nvalue = 1.0"] ;
127 -> 131 ;
132 [label="NumberOfOpenCreditLinesAndLoans <= 36.5\nmse = 0.022\nsamples = 3492\nvalue = 0.023"] ;
126 -> 132 ;
133 [label="DebtRatio <= 0.365\nmse = 0.022\nsamples = 3488\nvalue = 0.022"] ;
132 -> 133 ;
134 [label="mse = 0.015\nsamples = 1613\nvalue = 0.015"] ;
133 -> 134 ;
135 [label="mse = 0.027\nsamples = 1875\nvalue = 0.028"] ;
133 -> 135 ;
136 [label="age <= 40.0\nmse = 0.188\nsamples = 4\nvalue = 0.25"] ;
132 -> 136 ;
137 [label="mse = 0.0\nsamples = 1\nvalue = 1.0"] ;
136 -> 137 ;
138 [label="mse = 0.0\nsamples = 3\nvalue = 0.0"] ;
136 -> 138 ;
139 [label="RevolvingUtilizationOfUnsecuredLines <= 0.036\nmse = 0.245\nsamples = 7\nvalue = 0.429"] ;
7 -> 139 ;
140 [label="mse = 0.0\nsamples = 4\nvalue = 0.0"] ;
139 -> 140 ;
141 [label="mse = 0.0\nsamples = 3\nvalue = 1.0"] ;
139 -> 141 ;
142 [label="NumberOfOpenCreditLinesAndLoans <= 8.5\nmse = 0.007\nsamples = 42509\nvalue = 0.008"] ;
6 -> 142 ;
143 [label="MonthlyIncome <= 3489.5\nmse = 0.005\nsamples = 23815\nvalue = 0.005"] ;
142 -> 143 ;
144 [label="MonthlyIncome <= 3488.5\nmse = 0.008\nsamples = 4444\nvalue = 0.009"] ;
143 -> 144 ;
145 [label="DebtRatio <= 3188.0\nmse = 0.008\nsamples = 4442\nvalue = 0.008"] ;
144 -> 145 ;
146 [label="NumberOfOpenCreditLinesAndLoans <= 7.5\nmse = 0.008\nsamples = 4435\nvalue = 0.008"] ;
145 -> 146 ;
147 [label="age <= 55.5\nmse = 0.006\nsamples = 3854\nvalue = 0.006"] ;
146 -> 147 ;
148 [label="MonthlyIncome <= 2828.0\nmse = 0.026\nsamples = 114\nvalue = 0.026"] ;
147 -> 148 ;
149 [label="mse = 0.0\nsamples = 87\nvalue = 0.0"] ;
148 -> 149 ;
150 [label="MonthlyIncome <= 2854.5\nmse = 0.099\nsamples = 27\nvalue = 0.111"] ;
148 -> 150 ;
151 [label="mse = 0.0\nsamples = 1\nvalue = 1.0"] ;
150 -> 151 ;
152 [label="mse = 0.071\nsamples = 26\nvalue = 0.077"] ;
150 -> 152 ;
153 [label="NumberRealEstateLoansOrLines <= 2.5\nmse = 0.006\nsamples = 3740\nvalue = 0.006"] ;
147 -> 153 ;
154 [label="age <= 67.5\nmse = 0.005\nsamples = 3718\nvalue = 0.005"] ;
153 -> 154 ;
155 [label="mse = 0.008\nsamples = 1580\nvalue = 0.008"] ;
154 -> 155 ;
156 [label="mse = 0.003\nsamples = 2138\nvalue = 0.003"] ;
154 -> 156 ;
157 [label="MonthlyIncome <= 3187.5\nmse = 0.043\nsamples = 22\nvalue = 0.045"] ;
153 -> 157 ;
158 [label="mse = 0.0\nsamples = 18\nvalue = 0.0"] ;
157 -> 158 ;
159 [label="mse = 0.188\nsamples = 4\nvalue = 0.25"] ;
157 -> 159 ;
160 [label="NumberRealEstateLoansOrLines <= 2.5\nmse = 0.02\nsamples = 581\nvalue = 0.021"] ;
146 -> 160 ;
161 [label="MonthlyIncome <= 2291.5\nmse = 0.019\nsamples = 574\nvalue = 0.019"] ;
160 -> 161 ;
162 [label="MonthlyIncome <= 0.5\nmse = 0.004\nsamples = 263\nvalue = 0.004"] ;
161 -> 162 ;
163 [label="mse = 0.032\nsamples = 30\nvalue = 0.033"] ;
162 -> 163 ;
164 [label="mse = 0.0\nsamples = 233\nvalue = 0.0"] ;
162 -> 164 ;
165 [label="MonthlyIncome <= 2498.0\nmse = 0.031\nsamples = 311\nvalue = 0.032"] ;
161 -> 165 ;
166 [label="mse = 0.078\nsamples = 35\nvalue = 0.086"] ;
165 -> 166 ;
167 [label="mse = 0.025\nsamples = 276\nvalue = 0.025"] ;
165 -> 167 ;
168 [label="MonthlyIncome <= 1206.0\nmse = 0.122\nsamples = 7\nvalue = 0.143"] ;
160 -> 168 ;
169 [label="age <= 64.5\nmse = 0.25\nsamples = 2\nvalue = 0.5"] ;
168 -> 169 ;
170 [label="mse = 0.0\nsamples = 1\nvalue = 1.0"] ;
169 -> 170 ;
171 [label="mse = 0.0\nsamples = 1\nvalue = 0.0"] ;
169 -> 171 ;
172 [label="mse = 0.0\nsamples = 5\nvalue = 0.0"] ;
168 -> 172 ;
173 [label="age <= 66.5\nmse = 0.122\nsamples = 7\nvalue = 0.143"] ;
145 -> 173 ;
174 [label="mse = 0.0\nsamples = 6\nvalue = 0.0"] ;
173 -> 174 ;
175 [label="mse = 0.0\nsamples = 1\nvalue = 1.0"] ;
173 -> 175 ;
176 [label="age <= 75.5\nmse = 0.25\nsamples = 2\nvalue = 0.5"] ;
144 -> 176 ;
177 [label="mse = 0.0\nsamples = 1\nvalue = 1.0"] ;
176 -> 177 ;
178 [label="mse = 0.0\nsamples = 1\nvalue = 0.0"] ;
176 -> 178 ;
179 [label="RevolvingUtilizationOfUnsecuredLines <= 0.16\nmse = 0.004\nsamples = 19371\nvalue = 0.004"] ;
143 -> 179 ;
180 [label="RevolvingUtilizationOfUnsecuredLines <= 0.0\nmse = 0.004\nsamples = 17527\nvalue = 0.004"] ;
179 -> 180 ;
181 [label="MonthlyIncome <= 9196.0\nmse = 0.007\nsamples = 2596\nvalue = 0.007"] ;
180 -> 181 ;
182 [label="NumberRealEstateLoansOrLines <= 2.5\nmse = 0.005\nsamples = 2293\nvalue = 0.005"] ;
181 -> 182 ;
183 [label="NumberOfDependents <= 2.5\nmse = 0.005\nsamples = 2265\nvalue = 0.005"] ;
182 -> 183 ;
184 [label="DebtRatio <= 0.231\nmse = 0.004\nsamples = 2235\nvalue = 0.004"] ;
183 -> 184 ;
185 [label="mse = 0.001\nsamples = 1093\nvalue = 0.001"] ;
184 -> 185 ;
186 [label="mse = 0.008\nsamples = 1142\nvalue = 0.008"] ;
184 -> 186 ;
187 [label="NumberOfOpenCreditLinesAndLoans <= 1.5\nmse = 0.032\nsamples = 30\nvalue = 0.033"] ;
183 -> 187 ;
188 [label="mse = 0.222\nsamples = 3\nvalue = 0.333"] ;
187 -> 188 ;
189 [label="mse = 0.0\nsamples = 27\nvalue = 0.0"] ;
187 -> 189 ;
190 [label="DebtRatio <= 2178.5\nmse = 0.034\nsamples = 28\nvalue = 0.036"] ;
182 -> 190 ;
191 [label="mse = 0.0\nsamples = 23\nvalue = 0.0"] ;
190 -> 191 ;
192 [label="DebtRatio <= 2408.5\nmse = 0.16\nsamples = 5\nvalue = 0.2"] ;
190 -> 192 ;
193 [label="mse = 0.0\nsamples = 1\nvalue = 1.0"] ;
192 -> 193 ;
194 [label="mse = 0.0\nsamples = 4\nvalue = 0.0"] ;
192 -> 194 ;
195 [label="MonthlyIncome <= 9205.5\nmse = 0.016\nsamples = 303\nvalue = 0.017"] ;
181 -> 195 ;
196 [label="DebtRatio <= 0.2\nmse = 0.222\nsamples = 3\nvalue = 0.333"] ;
195 -> 196 ;
197 [label="mse = 0.0\nsamples = 2\nvalue = 0.0"] ;
196 -> 197 ;
198 [label="mse = 0.0\nsamples = 1\nvalue = 1.0"] ;
196 -> 198 ;
199 [label="MonthlyIncome <= 9916.5\nmse = 0.013\nsamples = 300\nvalue = 0.013"] ;
195 -> 199 ;
200 [label="NumberOfOpenCreditLinesAndLoans <= 3.5\nmse = 0.042\nsamples = 45\nvalue = 0.044"] ;
199 -> 200 ;
201 [label="mse = 0.204\nsamples = 7\nvalue = 0.286"] ;
200 -> 201 ;
202 [label="mse = 0.0\nsamples = 38\nvalue = 0.0"] ;
200 -> 202 ;
203 [label="MonthlyIncome <= 17908.5\nmse = 0.008\nsamples = 255\nvalue = 0.008"] ;
199 -> 203 ;
204 [label="mse = 0.005\nsamples = 219\nvalue = 0.005"] ;
203 -> 204 ;
205 [label="mse = 0.027\nsamples = 36\nvalue = 0.028"] ;
203 -> 205 ;
206 [label="DebtRatio <= 154.5\nmse = 0.003\nsamples = 14931\nvalue = 0.003"] ;
180 -> 206 ;
207 [label="NumberRealEstateLoansOrLines <= 2.5\nmse = 0.002\nsamples = 11836\nvalue = 0.002"] ;
206 -> 207 ;
208 [label="MonthlyIncome <= 6018.5\nmse = 0.002\nsamples = 11684\nvalue = 0.002"] ;
207 -> 208 ;
209 [label="MonthlyIncome <= 6017.5\nmse = 0.004\nsamples = 4019\nvalue = 0.004"] ;
208 -> 209 ;
210 [label="mse = 0.003\nsamples = 4017\nvalue = 0.003"] ;
209 -> 210 ;
211 [label="mse = 0.25\nsamples = 2\nvalue = 0.5"] ;
209 -> 211 ;
212 [label="MonthlyIncome <= 6941.5\nmse = 0.002\nsamples = 7665\nvalue = 0.002"] ;
208 -> 212 ;
213 [label="mse = 0.001\nsamples = 3900\nvalue = 0.001"] ;
212 -> 213 ;
214 [label="mse = 0.002\nsamples = 3765\nvalue = 0.002"] ;
212 -> 214 ;
215 [label="DebtRatio <= 0.94\nmse = 0.013\nsamples = 152\nvalue = 0.013"] ;
207 -> 215 ;
216 [label="RevolvingUtilizationOfUnsecuredLines <= 0.005\nmse = 0.007\nsamples = 143\nvalue = 0.007"] ;
215 -> 216 ;
217 [label="mse = 0.099\nsamples = 9\nvalue = 0.111"] ;
216 -> 217 ;
218 [label="mse = 0.0\nsamples = 134\nvalue = 0.0"] ;
216 -> 218 ;
219 [label="DebtRatio <= 0.968\nmse = 0.099\nsamples = 9\nvalue = 0.111"] ;
215 -> 219 ;
220 [label="mse = 0.0\nsamples = 1\nvalue = 1.0"] ;
219 -> 220 ;
221 [label="mse = 0.0\nsamples = 8\nvalue = 0.0"] ;
219 -> 221 ;
222 [label="DebtRatio <= 155.5\nmse = 0.005\nsamples = 3095\nvalue = 0.005"] ;
206 -> 222 ;
223 [label="NumberOfOpenCreditLinesAndLoans <= 6.5\nmse = 0.222\nsamples = 3\nvalue = 0.333"] ;
222 -> 223 ;
224 [label="mse = 0.0\nsamples = 2\nvalue = 0.0"] ;
223 -> 224 ;
225 [label="mse = 0.0\nsamples = 1\nvalue = 1.0"] ;
223 -> 225 ;
226 [label="DebtRatio <= 1025.0\nmse = 0.005\nsamples = 3092\nvalue = 0.005"] ;
222 -> 226 ;
227 [label="DebtRatio <= 1023.0\nmse = 0.009\nsamples = 1214\nvalue = 0.009"] ;
226 -> 227 ;
228 [label="mse = 0.008\nsamples = 1213\nvalue = 0.008"] ;
227 -> 228 ;
229 [label="mse = 0.0\nsamples = 1\nvalue = 1.0"] ;
227 -> 229 ;
230 [label="DebtRatio <= 4559.5\nmse = 0.002\nsamples = 1878\nvalue = 0.002"] ;
226 -> 230 ;
231 [label="mse = 0.002\nsamples = 1814\nvalue = 0.002"] ;
230 -> 231 ;
232 [label="mse = 0.015\nsamples = 64\nvalue = 0.016"] ;
230 -> 232 ;
233 [label="RevolvingUtilizationOfUnsecuredLines <= 0.16\nmse = 0.008\nsamples = 1844\nvalue = 0.008"] ;
179 -> 233 ;
234 [label="mse = 0.0\nsamples = 1\nvalue = 1.0"] ;
233 -> 234 ;
235 [label="DebtRatio <= 0.004\nmse = 0.007\nsamples = 1843\nvalue = 0.007"] ;
233 -> 235 ;
236 [label="age <= 67.5\nmse = 0.188\nsamples = 4\nvalue = 0.25"] ;
235 -> 236 ;
237 [label="mse = 0.0\nsamples = 1\nvalue = 1.0"] ;
236 -> 237 ;
238 [label="mse = 0.0\nsamples = 3\nvalue = 0.0"] ;
236 -> 238 ;
239 [label="age <= 74.5\nmse = 0.006\nsamples = 1839\nvalue = 0.007"] ;
235 -> 239 ;
240 [label="MonthlyIncome <= 5254.0\nmse = 0.004\nsamples = 1607\nvalue = 0.004"] ;
239 -> 240 ;
241 [label="MonthlyIncome <= 5241.0\nmse = 0.011\nsamples = 375\nvalue = 0.011"] ;
240 -> 241 ;
242 [label="mse = 0.005\nsamples = 371\nvalue = 0.005"] ;
241 -> 242 ;
243 [label="mse = 0.25\nsamples = 4\nvalue = 0.5"] ;
241 -> 243 ;
244 [label="age <= 55.5\nmse = 0.002\nsamples = 1232\nvalue = 0.002"] ;
240 -> 244 ;
245 [label="mse = 0.02\nsamples = 98\nvalue = 0.02"] ;
244 -> 245 ;
246 [label="mse = 0.0\nsamples = 1134\nvalue = 0.0"] ;
244 -> 246 ;
247 [label="RevolvingUtilizationOfUnsecuredLines <= 0.166\nmse = 0.025\nsamples = 232\nvalue = 0.026"] ;
239 -> 247 ;
248 [label="MonthlyIncome <= 6668.111\nmse = 0.149\nsamples = 11\nvalue = 0.182"] ;
247 -> 248 ;
249 [label="mse = 0.222\nsamples = 3\nvalue = 0.667"] ;
248 -> 249 ;
250 [label="mse = 0.0\nsamples = 8\nvalue = 0.0"] ;
248 -> 250 ;
251 [label="RevolvingUtilizationOfUnsecuredLines <= 0.289\nmse = 0.018\nsamples = 221\nvalue = 0.018"] ;
247 -> 251 ;
252 [label="mse = 0.014\nsamples = 213\nvalue = 0.014"] ;
251 -> 252 ;
253 [label="mse = 0.109\nsamples = 8\nvalue = 0.125"] ;
251 -> 253 ;
254 [label="NumberOfOpenCreditLinesAndLoans <= 14.5\nmse = 0.011\nsamples = 18694\nvalue = 0.011"] ;
142 -> 254 ;
255 [label="MonthlyIncome <= 3986.5\nmse = 0.009\nsamples = 13454\nvalue = 0.009"] ;
254 -> 255 ;
256 [label="MonthlyIncome <= 3985.5\nmse = 0.017\nsamples = 2736\nvalue = 0.017"] ;
255 -> 256 ;
257 [label="DebtRatio <= 2640.0\nmse = 0.016\nsamples = 2735\nvalue = 0.016"] ;
256 -> 257 ;
258 [label="age <= 81.5\nmse = 0.015\nsamples = 2707\nvalue = 0.016"] ;
257 -> 258 ;
259 [label="MonthlyIncome <= 1690.5\nmse = 0.014\nsamples = 2501\nvalue = 0.014"] ;
258 -> 259 ;
260 [label="RevolvingUtilizationOfUnsecuredLines <= 0.244\nmse = 0.002\nsamples = 531\nvalue = 0.002"] ;
259 -> 260 ;
261 [label="mse = 0.0\nsamples = 508\nvalue = 0.0"] ;
260 -> 261 ;
262 [label="mse = 0.042\nsamples = 23\nvalue = 0.043"] ;
260 -> 262 ;
263 [label="MonthlyIncome <= 1693.0\nmse = 0.017\nsamples = 1970\nvalue = 0.017"] ;
259 -> 263 ;
264 [label="mse = 0.0\nsamples = 1\nvalue = 1.0"] ;
263 -> 264 ;
265 [label="mse = 0.016\nsamples = 1969\nvalue = 0.017"] ;
263 -> 265 ;
266 [label="DebtRatio <= 0.002\nmse = 0.033\nsamples = 206\nvalue = 0.034"] ;
258 -> 266 ;
267 [label="DebtRatio <= 0.002\nmse = 0.139\nsamples = 12\nvalue = 0.167"] ;
266 -> 267 ;
268 [label="mse = 0.083\nsamples = 11\nvalue = 0.091"] ;
267 -> 268 ;
269 [label="mse = 0.0\nsamples = 1\nvalue = 1.0"] ;
267 -> 269 ;
270 [label="DebtRatio <= 44.352\nmse = 0.025\nsamples = 194\nvalue = 0.026"] ;
266 -> 270 ;
271 [label="mse = 0.021\nsamples = 190\nvalue = 0.021"] ;
270 -> 271 ;
272 [label="mse = 0.188\nsamples = 4\nvalue = 0.25"] ;
270 -> 272 ;
273 [label="DebtRatio <= 2731.5\nmse = 0.096\nsamples = 28\nvalue = 0.107"] ;
257 -> 273 ;
274 [label="mse = 0.0\nsamples = 1\nvalue = 1.0"] ;
273 -> 274 ;
275 [label="NumberOfOpenCreditLinesAndLoans <= 10.5\nmse = 0.069\nsamples = 27\nvalue = 0.074"] ;
273 -> 275 ;
276 [label="NumberOfOpenCreditLinesAndLoans <= 9.5\nmse = 0.173\nsamples = 9\nvalue = 0.222"] ;
275 -> 276 ;
277 [label="mse = 0.0\nsamples = 4\nvalue = 0.0"] ;
276 -> 277 ;
278 [label="mse = 0.24\nsamples = 5\nvalue = 0.4"] ;
276 -> 278 ;
279 [label="mse = 0.0\nsamples = 18\nvalue = 0.0"] ;
275 -> 279 ;
280 [label="mse = 0.0\nsamples = 1\nvalue = 1.0"] ;
256 -> 280 ;
281 [label="RevolvingUtilizationOfUnsecuredLines <= 0.204\nmse = 0.007\nsamples = 10718\nvalue = 0.007"] ;
255 -> 281 ;
282 [label="DebtRatio <= 3119.0\nmse = 0.006\nsamples = 9730\nvalue = 0.006"] ;
281 -> 282 ;
283 [label="NumberOfDependents <= 1.5\nmse = 0.006\nsamples = 9350\nvalue = 0.006"] ;
282 -> 283 ;
284 [label="RevolvingUtilizationOfUnsecuredLines <= 0.072\nmse = 0.005\nsamples = 8450\nvalue = 0.005"] ;
283 -> 284 ;
285 [label="RevolvingUtilizationOfUnsecuredLines <= 0.005\nmse = 0.004\nsamples = 6189\nvalue = 0.004"] ;
284 -> 285 ;
286 [label="mse = 0.008\nsamples = 1455\nvalue = 0.008"] ;
285 -> 286 ;
287 [label="mse = 0.003\nsamples = 4734\nvalue = 0.003"] ;
285 -> 287 ;
288 [label="RevolvingUtilizationOfUnsecuredLines <= 0.072\nmse = 0.008\nsamples = 2261\nvalue = 0.008"] ;
284 -> 288 ;
289 [label="mse = 0.0\nsamples = 1\nvalue = 1.0"] ;
288 -> 289 ;
290 [label="mse = 0.008\nsamples = 2260\nvalue = 0.008"] ;
288 -> 290 ;
291 [label="DebtRatio <= 0.575\nmse = 0.013\nsamples = 900\nvalue = 0.013"] ;
283 -> 291 ;
292 [label="DebtRatio <= 0.136\nmse = 0.009\nsamples = 763\nvalue = 0.009"] ;
291 -> 292 ;
293 [label="mse = 0.031\nsamples = 123\nvalue = 0.033"] ;
292 -> 293 ;
294 [label="mse = 0.005\nsamples = 640\nvalue = 0.005"] ;
292 -> 294 ;
295 [label="DebtRatio <= 0.583\nmse = 0.035\nsamples = 137\nvalue = 0.036"] ;
291 -> 295 ;
296 [label="mse = 0.0\nsamples = 1\nvalue = 1.0"] ;
295 -> 296 ;
297 [label="mse = 0.029\nsamples = 136\nvalue = 0.029"] ;
295 -> 297 ;
298 [label="DebtRatio <= 3121.0\nmse = 0.018\nsamples = 380\nvalue = 0.018"] ;
282 -> 298 ;
299 [label="mse = 0.0\nsamples = 1\nvalue = 1.0"] ;
298 -> 299 ;
300 [label="RevolvingUtilizationOfUnsecuredLines <= 0.172\nmse = 0.016\nsamples = 379\nvalue = 0.016"] ;
298 -> 300 ;
301 [label="RevolvingUtilizationOfUnsecuredLines <= 0.0\nmse = 0.011\nsamples = 356\nvalue = 0.011"] ;
300 -> 301 ;
302 [label="mse = 0.042\nsamples = 45\nvalue = 0.044"] ;
301 -> 302 ;
303 [label="mse = 0.006\nsamples = 311\nvalue = 0.006"] ;
301 -> 303 ;
304 [label="RevolvingUtilizationOfUnsecuredLines <= 0.174\nmse = 0.079\nsamples = 23\nvalue = 0.087"] ;
300 -> 304 ;
305 [label="mse = 0.0\nsamples = 1\nvalue = 1.0"] ;
304 -> 305 ;
306 [label="mse = 0.043\nsamples = 22\nvalue = 0.045"] ;
304 -> 306 ;
307 [label="RevolvingUtilizationOfUnsecuredLines <= 0.204\nmse = 0.017\nsamples = 988\nvalue = 0.017"] ;
281 -> 307 ;
308 [label="mse = 0.0\nsamples = 1\nvalue = 1.0"] ;
307 -> 308 ;
309 [label="RevolvingUtilizationOfUnsecuredLines <= 0.209\nmse = 0.016\nsamples = 987\nvalue = 0.016"] ;
307 -> 309 ;
310 [label="RevolvingUtilizationOfUnsecuredLines <= 0.209\nmse = 0.071\nsamples = 65\nvalue = 0.077"] ;
309 -> 310 ;
311 [label="MonthlyIncome <= 5803.0\nmse = 0.045\nsamples = 63\nvalue = 0.048"] ;
310 -> 311 ;
312 [label="mse = 0.173\nsamples = 9\nvalue = 0.222"] ;
311 -> 312 ;
313 [label="mse = 0.018\nsamples = 54\nvalue = 0.019"] ;
311 -> 313 ;
314 [label="mse = 0.0\nsamples = 2\nvalue = 1.0"] ;
310 -> 314 ;
315 [label="NumberRealEstateLoansOrLines <= 2.5\nmse = 0.012\nsamples = 922\nvalue = 0.012"] ;
309 -> 315 ;
316 [label="MonthlyIncome <= 4001.0\nmse = 0.008\nsamples = 842\nvalue = 0.008"] ;
315 -> 316 ;
317 [label="mse = 0.066\nsamples = 14\nvalue = 0.071"] ;
316 -> 317 ;
318 [label="mse = 0.007\nsamples = 828\nvalue = 0.007"] ;
316 -> 318 ;
319 [label="age <= 78.5\nmse = 0.048\nsamples = 80\nvalue = 0.05"] ;
315 -> 319 ;
320 [label="mse = 0.037\nsamples = 78\nvalue = 0.038"] ;
319 -> 320 ;
321 [label="mse = 0.25\nsamples = 2\nvalue = 0.5"] ;
319 -> 321 ;
322 [label="age <= 92.0\nmse = 0.015\nsamples = 5240\nvalue = 0.015"] ;
254 -> 322 ;
323 [label="RevolvingUtilizationOfUnsecuredLines <= 0.295\nmse = 0.015\nsamples = 5233\nvalue = 0.015"] ;
322 -> 323 ;
324 [label="DebtRatio <= 10306.0\nmse = 0.015\nsamples = 5230\nvalue = 0.015"] ;
323 -> 324 ;
325 [label="DebtRatio <= 20.365\nmse = 0.015\nsamples = 5226\nvalue = 0.015"] ;
324 -> 325 ;
326 [label="DebtRatio <= 19.365\nmse = 0.016\nsamples = 4293\nvalue = 0.017"] ;
325 -> 326 ;
327 [label="age <= 83.5\nmse = 0.016\nsamples = 4292\nvalue = 0.016"] ;
326 -> 327 ;
328 [label="mse = 0.015\nsamples = 4207\nvalue = 0.016"] ;
327 -> 328 ;
329 [label="mse = 0.045\nsamples = 85\nvalue = 0.047"] ;
327 -> 329 ;
330 [label="mse = 0.0\nsamples = 1\nvalue = 1.0"] ;
326 -> 330 ;
331 [label="RevolvingUtilizationOfUnsecuredLines <= 0.0\nmse = 0.006\nsamples = 933\nvalue = 0.006"] ;
325 -> 331 ;
332 [label="age <= 56.5\nmse = 0.042\nsamples = 46\nvalue = 0.043"] ;
331 -> 332 ;
333 [label="mse = 0.16\nsamples = 5\nvalue = 0.2"] ;
332 -> 333 ;
334 [label="mse = 0.024\nsamples = 41\nvalue = 0.024"] ;
332 -> 334 ;
335 [label="NumberOfDependents <= 0.379\nmse = 0.004\nsamples = 887\nvalue = 0.005"] ;
331 -> 335 ;
336 [label="mse = 0.001\nsamples = 684\nvalue = 0.001"] ;
335 -> 336 ;
337 [label="mse = 0.015\nsamples = 203\nvalue = 0.015"] ;
335 -> 337 ;
338 [label="DebtRatio <= 10747.5\nmse = 0.188\nsamples = 4\nvalue = 0.25"] ;
324 -> 338 ;
339 [label="mse = 0.0\nsamples = 1\nvalue = 1.0"] ;
338 -> 339 ;
340 [label="mse = 0.0\nsamples = 3\nvalue = 0.0"] ;
338 -> 340 ;
341 [label="NumberRealEstateLoansOrLines <= 2.5\nmse = 0.222\nsamples = 3\nvalue = 0.333"] ;
323 -> 341 ;
342 [label="mse = 0.0\nsamples = 1\nvalue = 1.0"] ;
341 -> 342 ;
343 [label="mse = 0.0\nsamples = 2\nvalue = 0.0"] ;
341 -> 343 ;
344 [label="DebtRatio <= 0.006\nmse = 0.204\nsamples = 7\nvalue = 0.286"] ;
322 -> 344 ;
345 [label="RevolvingUtilizationOfUnsecuredLines <= 0.001\nmse = 0.222\nsamples = 3\nvalue = 0.667"] ;
344 -> 345 ;
346 [label="mse = 0.0\nsamples = 1\nvalue = 0.0"] ;
345 -> 346 ;
347 [label="mse = 0.0\nsamples = 2\nvalue = 1.0"] ;
345 -> 347 ;
348 [label="mse = 0.0\nsamples = 4\nvalue = 0.0"] ;
344 -> 348 ;
349 [label="age <= 33.5\nmse = 0.048\nsamples = 1807\nvalue = 0.05"] ;
5 -> 349 ;
350 [label="MonthlyIncome <= 18291.5\nmse = 0.165\nsamples = 43\nvalue = 0.209"] ;
349 -> 350 ;
351 [label="RevolvingUtilizationOfUnsecuredLines <= 0.001\nmse = 0.112\nsamples = 39\nvalue = 0.128"] ;
350 -> 351 ;
352 [label="mse = 0.0\nsamples = 2\nvalue = 1.0"] ;
351 -> 352 ;
353 [label="RevolvingUtilizationOfUnsecuredLines <= 0.249\nmse = 0.075\nsamples = 37\nvalue = 0.081"] ;
351 -> 353 ;
354 [label="DebtRatio <= 6906.5\nmse = 0.052\nsamples = 36\nvalue = 0.056"] ;
353 -> 354 ;
355 [label="NumberRealEstateLoansOrLines <= 5.5\nmse = 0.029\nsamples = 33\nvalue = 0.03"] ;
354 -> 355 ;
356 [label="mse = 0.0\nsamples = 28\nvalue = 0.0"] ;
355 -> 356 ;
357 [label="MonthlyIncome <= 10227.5\nmse = 0.16\nsamples = 5\nvalue = 0.2"] ;
355 -> 357 ;
358 [label="mse = 0.0\nsamples = 4\nvalue = 0.0"] ;
357 -> 358 ;
359 [label="mse = 0.0\nsamples = 1\nvalue = 1.0"] ;
357 -> 359 ;
360 [label="DebtRatio <= 9842.0\nmse = 0.222\nsamples = 3\nvalue = 0.333"] ;
354 -> 360 ;
361 [label="mse = 0.0\nsamples = 1\nvalue = 1.0"] ;
360 -> 361 ;
362 [label="mse = 0.0\nsamples = 2\nvalue = 0.0"] ;
360 -> 362 ;
363 [label="mse = 0.0\nsamples = 1\nvalue = 1.0"] ;
353 -> 363 ;
364 [label="mse = 0.0\nsamples = 4\nvalue = 1.0"] ;
350 -> 364 ;
365 [label="MonthlyIncome <= 6358.0\nmse = 0.044\nsamples = 1764\nvalue = 0.046"] ;
349 -> 365 ;
366 [label="NumberRealEstateLoansOrLines <= 11.5\nmse = 0.084\nsamples = 323\nvalue = 0.093"] ;
365 -> 366 ;
367 [label="DebtRatio <= 1.38\nmse = 0.077\nsamples = 319\nvalue = 0.085"] ;
366 -> 367 ;
368 [label="MonthlyIncome <= 6336.5\nmse = 0.045\nsamples = 213\nvalue = 0.047"] ;
367 -> 368 ;
369 [label="MonthlyIncome <= 6081.5\nmse = 0.041\nsamples = 212\nvalue = 0.042"] ;
368 -> 369 ;
370 [label="RevolvingUtilizationOfUnsecuredLines <= 0.019\nmse = 0.03\nsamples = 194\nvalue = 0.031"] ;
369 -> 370 ;
371 [label="RevolvingUtilizationOfUnsecuredLines <= 0.017\nmse = 0.075\nsamples = 49\nvalue = 0.082"] ;
370 -> 371 ;
372 [label="age <= 62.0\nmse = 0.059\nsamples = 48\nvalue = 0.062"] ;
371 -> 372 ;
373 [label="mse = 0.026\nsamples = 38\nvalue = 0.026"] ;
372 -> 373 ;
374 [label="mse = 0.16\nsamples = 10\nvalue = 0.2"] ;
372 -> 374 ;
375 [label="mse = 0.0\nsamples = 1\nvalue = 1.0"] ;
371 -> 375 ;
376 [label="age <= 43.5\nmse = 0.014\nsamples = 145\nvalue = 0.014"] ;
370 -> 376 ;
377 [label="age <= 42.5\nmse = 0.059\nsamples = 32\nvalue = 0.062"] ;
376 -> 377 ;
378 [label="mse = 0.0\nsamples = 23\nvalue = 0.0"] ;
377 -> 378 ;
379 [label="mse = 0.173\nsamples = 9\nvalue = 0.222"] ;
377 -> 379 ;
380 [label="mse = 0.0\nsamples = 113\nvalue = 0.0"] ;
376 -> 380 ;
381 [label="MonthlyIncome <= 6112.5\nmse = 0.139\nsamples = 18\nvalue = 0.167"] ;
369 -> 381 ;
382 [label="mse = 0.0\nsamples = 2\nvalue = 1.0"] ;
381 -> 382 ;
383 [label="NumberOfOpenCreditLinesAndLoans <= 18.0\nmse = 0.059\nsamples = 16\nvalue = 0.062"] ;
381 -> 383 ;
384 [label="mse = 0.0\nsamples = 13\nvalue = 0.0"] ;
383 -> 384 ;
385 [label="DebtRatio <= 0.708\nmse = 0.222\nsamples = 3\nvalue = 0.333"] ;
383 -> 385 ;
386 [label="mse = 0.0\nsamples = 1\nvalue = 1.0"] ;
385 -> 386 ;
387 [label="mse = 0.0\nsamples = 2\nvalue = 0.0"] ;
385 -> 387 ;
388 [label="mse = 0.0\nsamples = 1\nvalue = 1.0"] ;
368 -> 388 ;
389 [label="MonthlyIncome <= 4892.5\nmse = 0.135\nsamples = 106\nvalue = 0.16"] ;
367 -> 389 ;
390 [label="RevolvingUtilizationOfUnsecuredLines <= 0.119\nmse = 0.086\nsamples = 84\nvalue = 0.095"] ;
389 -> 390 ;
391 [label="NumberOfOpenCreditLinesAndLoans <= 7.5\nmse = 0.018\nsamples = 55\nvalue = 0.018"] ;
390 -> 391 ;
392 [label="NumberOfOpenCreditLinesAndLoans <= 6.5\nmse = 0.25\nsamples = 2\nvalue = 0.5"] ;
391 -> 392 ;
393 [label="mse = 0.0\nsamples = 1\nvalue = 0.0"] ;
392 -> 393 ;
394 [label="mse = 0.0\nsamples = 1\nvalue = 1.0"] ;
392 -> 394 ;
395 [label="mse = 0.0\nsamples = 53\nvalue = 0.0"] ;
391 -> 395 ;
396 [label="NumberOfOpenCreditLinesAndLoans <= 9.5\nmse = 0.183\nsamples = 29\nvalue = 0.241"] ;
390 -> 396 ;
397 [label="mse = 0.0\nsamples = 8\nvalue = 0.0"] ;
396 -> 397 ;
398 [label="NumberOfOpenCreditLinesAndLoans <= 14.5\nmse = 0.222\nsamples = 21\nvalue = 0.333"] ;
396 -> 398 ;
399 [label="age <= 50.5\nmse = 0.245\nsamples = 7\nvalue = 0.571"] ;
398 -> 399 ;
400 [label="mse = 0.188\nsamples = 4\nvalue = 0.25"] ;
399 -> 400 ;
401 [label="mse = 0.0\nsamples = 3\nvalue = 1.0"] ;
399 -> 401 ;
402 [label="DebtRatio <= 1.399\nmse = 0.168\nsamples = 14\nvalue = 0.214"] ;
398 -> 402 ;
403 [label="mse = 0.0\nsamples = 1\nvalue = 1.0"] ;
402 -> 403 ;
404 [label="mse = 0.13\nsamples = 13\nvalue = 0.154"] ;
402 -> 404 ;
405 [label="RevolvingUtilizationOfUnsecuredLines <= 0.032\nmse = 0.242\nsamples = 22\nvalue = 0.409"] ;
389 -> 405 ;
406 [label="age <= 41.0\nmse = 0.099\nsamples = 9\nvalue = 0.111"] ;
405 -> 406 ;
407 [label="mse = 0.0\nsamples = 1\nvalue = 1.0"] ;
406 -> 407 ;
408 [label="mse = 0.0\nsamples = 8\nvalue = 0.0"] ;
406 -> 408 ;
409 [label="DebtRatio <= 1.517\nmse = 0.237\nsamples = 13\nvalue = 0.615"] ;
405 -> 409 ;
410 [label="mse = 0.0\nsamples = 5\nvalue = 1.0"] ;
409 -> 410 ;
411 [label="NumberOfOpenCreditLinesAndLoans <= 15.0\nmse = 0.234\nsamples = 8\nvalue = 0.375"] ;
409 -> 411 ;
412 [label="mse = 0.0\nsamples = 4\nvalue = 0.0"] ;
411 -> 412 ;
413 [label="DebtRatio <= 2.073\nmse = 0.188\nsamples = 4\nvalue = 0.75"] ;
411 -> 413 ;
414 [label="mse = 0.0\nsamples = 3\nvalue = 1.0"] ;
413 -> 414 ;
415 [label="mse = 0.0\nsamples = 1\nvalue = 0.0"] ;
413 -> 415 ;
416 [label="RevolvingUtilizationOfUnsecuredLines <= 0.01\nmse = 0.188\nsamples = 4\nvalue = 0.75"] ;
366 -> 416 ;
417 [label="mse = 0.0\nsamples = 1\nvalue = 0.0"] ;
416 -> 417 ;
418 [label="mse = 0.0\nsamples = 3\nvalue = 1.0"] ;
416 -> 418 ;
419 [label="age <= 48.5\nmse = 0.035\nsamples = 1441\nvalue = 0.036"] ;
365 -> 419 ;
420 [label="NumberRealEstateLoansOrLines <= 25.0\nmse = 0.059\nsamples = 448\nvalue = 0.062"] ;
419 -> 420 ;
421 [label="NumberRealEstateLoansOrLines <= 7.5\nmse = 0.057\nsamples = 447\nvalue = 0.06"] ;
420 -> 421 ;
422 [label="DebtRatio <= 0.623\nmse = 0.048\nsamples = 413\nvalue = 0.051"] ;
421 -> 422 ;
423 [label="MonthlyIncome <= 34500.0\nmse = 0.028\nsamples = 240\nvalue = 0.029"] ;
422 -> 423 ;
424 [label="NumberOfDependents <= 4.5\nmse = 0.022\nsamples = 226\nvalue = 0.022"] ;
423 -> 424 ;
425 [label="RevolvingUtilizationOfUnsecuredLines <= 0.278\nmse = 0.018\nsamples = 220\nvalue = 0.018"] ;
424 -> 425 ;
426 [label="mse = 0.014\nsamples = 213\nvalue = 0.014"] ;
425 -> 426 ;
427 [label="mse = 0.122\nsamples = 7\nvalue = 0.143"] ;
425 -> 427 ;
428 [label="MonthlyIncome <= 11610.0\nmse = 0.139\nsamples = 6\nvalue = 0.167"] ;
424 -> 428 ;
429 [label="mse = 0.0\nsamples = 1\nvalue = 1.0"] ;
428 -> 429 ;
430 [label="mse = 0.0\nsamples = 5\nvalue = 0.0"] ;
428 -> 430 ;
431 [label="age <= 39.5\nmse = 0.122\nsamples = 14\nvalue = 0.143"] ;
423 -> 431 ;
432 [label="DebtRatio <= 0.276\nmse = 0.24\nsamples = 5\nvalue = 0.4"] ;
431 -> 432 ;
433 [label="mse = 0.0\nsamples = 3\nvalue = 0.0"] ;
432 -> 433 ;
434 [label="mse = 0.0\nsamples = 2\nvalue = 1.0"] ;
432 -> 434 ;
435 [label="mse = 0.0\nsamples = 9\nvalue = 0.0"] ;
431 -> 435 ;
436 [label="DebtRatio <= 0.627\nmse = 0.074\nsamples = 173\nvalue = 0.081"] ;
422 -> 436 ;
437 [label="mse = 0.0\nsamples = 2\nvalue = 1.0"] ;
436 -> 437 ;
438 [label="MonthlyIncome <= 8342.5\nmse = 0.065\nsamples = 171\nvalue = 0.07"] ;
436 -> 438 ;
439 [label="age <= 35.5\nmse = 0.089\nsamples = 112\nvalue = 0.098"] ;
438 -> 439 ;
440 [label="mse = 0.24\nsamples = 5\nvalue = 0.4"] ;
439 -> 440 ;
441 [label="mse = 0.077\nsamples = 107\nvalue = 0.084"] ;
439 -> 441 ;
442 [label="NumberOfOpenCreditLinesAndLoans <= 7.5\nmse = 0.017\nsamples = 59\nvalue = 0.017"] ;
438 -> 442 ;
443 [label="mse = 0.122\nsamples = 7\nvalue = 0.143"] ;
442 -> 443 ;
444 [label="mse = 0.0\nsamples = 52\nvalue = 0.0"] ;
442 -> 444 ;
445 [label="RevolvingUtilizationOfUnsecuredLines <= 0.197\nmse = 0.145\nsamples = 34\nvalue = 0.176"] ;
421 -> 445 ;
446 [label="age <= 36.0\nmse = 0.09\nsamples = 30\nvalue = 0.1"] ;
445 -> 446 ;
447 [label="mse = 0.0\nsamples = 1\nvalue = 1.0"] ;
446 -> 447 ;
448 [label="RevolvingUtilizationOfUnsecuredLines <= 0.002\nmse = 0.064\nsamples = 29\nvalue = 0.069"] ;
446 -> 448 ;
449 [label="NumberRealEstateLoansOrLines <= 8.5\nmse = 0.24\nsamples = 5\nvalue = 0.4"] ;
448 -> 449 ;
450 [label="mse = 0.0\nsamples = 2\nvalue = 1.0"] ;
449 -> 450 ;
451 [label="mse = 0.0\nsamples = 3\nvalue = 0.0"] ;
449 -> 451 ;
452 [label="mse = 0.0\nsamples = 24\nvalue = 0.0"] ;
448 -> 452 ;
453 [label="age <= 40.0\nmse = 0.188\nsamples = 4\nvalue = 0.75"] ;
445 -> 453 ;
454 [label="mse = 0.0\nsamples = 1\nvalue = 0.0"] ;
453 -> 454 ;
455 [label="mse = 0.0\nsamples = 3\nvalue = 1.0"] ;
453 -> 455 ;
456 [label="mse = 0.0\nsamples = 1\nvalue = 1.0"] ;
420 -> 456 ;
457 [label="MonthlyIncome <= 8421.5\nmse = 0.024\nsamples = 993\nvalue = 0.024"] ;
419 -> 457 ;
458 [label="RevolvingUtilizationOfUnsecuredLines <= 0.282\nmse = 0.005\nsamples = 380\nvalue = 0.005"] ;
457 -> 458 ;
459 [label="MonthlyIncome <= 6605.5\nmse = 0.003\nsamples = 375\nvalue = 0.003"] ;
458 -> 459 ;
460 [label="NumberRealEstateLoansOrLines <= 7.0\nmse = 0.04\nsamples = 24\nvalue = 0.042"] ;
459 -> 460 ;
461 [label="mse = 0.0\nsamples = 22\nvalue = 0.0"] ;
460 -> 461 ;
462 [label="age <= 71.5\nmse = 0.25\nsamples = 2\nvalue = 0.5"] ;
460 -> 462 ;
463 [label="mse = 0.0\nsamples = 1\nvalue = 1.0"] ;
462 -> 463 ;
464 [label="mse = 0.0\nsamples = 1\nvalue = 0.0"] ;
462 -> 464 ;
465 [label="mse = 0.0\nsamples = 351\nvalue = 0.0"] ;
459 -> 465 ;
466 [label="MonthlyIncome <= 6985.111\nmse = 0.16\nsamples = 5\nvalue = 0.2"] ;
458 -> 466 ;
467 [label="mse = 0.0\nsamples = 1\nvalue = 1.0"] ;
466 -> 467 ;
468 [label="mse = 0.0\nsamples = 4\nvalue = 0.0"] ;
466 -> 468 ;
469 [label="MonthlyIncome <= 8462.5\nmse = 0.035\nsamples = 613\nvalue = 0.036"] ;
457 -> 469 ;
470 [label="mse = 0.0\nsamples = 1\nvalue = 1.0"] ;
469 -> 470 ;
471 [label="DebtRatio <= 1.01\nmse = 0.033\nsamples = 612\nvalue = 0.034"] ;
469 -> 471 ;
472 [label="DebtRatio <= 0.416\nmse = 0.027\nsamples = 578\nvalue = 0.028"] ;
471 -> 472 ;
473 [label="MonthlyIncome <= 9075.0\nmse = 0.008\nsamples = 245\nvalue = 0.008"] ;
472 -> 473 ;
474 [label="MonthlyIncome <= 9025.0\nmse = 0.139\nsamples = 6\nvalue = 0.167"] ;
473 -> 474 ;
475 [label="mse = 0.0\nsamples = 5\nvalue = 0.0"] ;
474 -> 475 ;
476 [label="mse = 0.0\nsamples = 1\nvalue = 1.0"] ;
474 -> 476 ;
477 [label="age <= 60.5\nmse = 0.004\nsamples = 239\nvalue = 0.004"] ;
473 -> 477 ;
478 [label="mse = 0.0\nsamples = 142\nvalue = 0.0"] ;
477 -> 478 ;
479 [label="mse = 0.01\nsamples = 97\nvalue = 0.01"] ;
477 -> 479 ;
480 [label="DebtRatio <= 0.417\nmse = 0.04\nsamples = 333\nvalue = 0.042"] ;
472 -> 480 ;
481 [label="mse = 0.0\nsamples = 1\nvalue = 1.0"] ;
480 -> 481 ;
482 [label="MonthlyIncome <= 36541.5\nmse = 0.038\nsamples = 332\nvalue = 0.039"] ;
480 -> 482 ;
483 [label="mse = 0.035\nsamples = 330\nvalue = 0.036"] ;
482 -> 483 ;
484 [label="mse = 0.25\nsamples = 2\nvalue = 0.5"] ;
482 -> 484 ;
485 [label="age <= 56.5\nmse = 0.125\nsamples = 34\nvalue = 0.147"] ;
471 -> 485 ;
486 [label="NumberOfDependents <= 1.5\nmse = 0.247\nsamples = 9\nvalue = 0.444"] ;
485 -> 486 ;
487 [label="MonthlyIncome <= 9458.0\nmse = 0.16\nsamples = 5\nvalue = 0.8"] ;
486 -> 487 ;
488 [label="mse = 0.25\nsamples = 2\nvalue = 0.5"] ;
487 -> 488 ;
489 [label="mse = 0.0\nsamples = 3\nvalue = 1.0"] ;
487 -> 489 ;
490 [label="mse = 0.0\nsamples = 4\nvalue = 0.0"] ;
486 -> 490 ;
491 [label="DebtRatio <= 1.026\nmse = 0.038\nsamples = 25\nvalue = 0.04"] ;
485 -> 491 ;
492 [label="mse = 0.0\nsamples = 1\nvalue = 1.0"] ;
491 -> 492 ;
493 [label="mse = 0.0\nsamples = 24\nvalue = 0.0"] ;
491 -> 493 ;
494 [label="NumberRealEstateLoansOrLines <= 4.5\nmse = 0.036\nsamples = 17092\nvalue = 0.038"] ;
4 -> 494 ;
495 [label="age <= 52.5\nmse = 0.035\nsamples = 16858\nvalue = 0.036"] ;
494 -> 495 ;
496 [label="DebtRatio <= 0.516\nmse = 0.041\nsamples = 10007\nvalue = 0.043"] ;
495 -> 496 ;
497 [label="NumberOfOpenCreditLinesAndLoans <= 43.0\nmse = 0.032\nsamples = 6452\nvalue = 0.033"] ;
496 -> 497 ;
498 [label="RevolvingUtilizationOfUnsecuredLines <= 0.5\nmse = 0.032\nsamples = 6451\nvalue = 0.033"] ;
497 -> 498 ;
499 [label="NumberOfOpenCreditLinesAndLoans <= 26.5\nmse = 0.028\nsamples = 4791\nvalue = 0.029"] ;
498 -> 499 ;
500 [label="MonthlyIncome <= 6002.5\nmse = 0.027\nsamples = 4774\nvalue = 0.028"] ;
499 -> 500 ;
501 [label="NumberOfOpenCreditLinesAndLoans <= 15.5\nmse = 0.034\nsamples = 2441\nvalue = 0.035"] ;
500 -> 501 ;
502 [label="RevolvingUtilizationOfUnsecuredLines <= 0.479\nmse = 0.032\nsamples = 2374\nvalue = 0.033"] ;
501 -> 502 ;
503 [label="RevolvingUtilizationOfUnsecuredLines <= 0.479\nmse = 0.035\nsamples = 2157\nvalue = 0.037"] ;
502 -> 503 ;
504 [label="mse = 0.035\nsamples = 2156\nvalue = 0.036"] ;
503 -> 504 ;
505 [label="mse = 0.0\nsamples = 1\nvalue = 1.0"] ;
503 -> 505 ;
506 [label="mse = 0.0\nsamples = 217\nvalue = 0.0"] ;
502 -> 506 ;
507 [label="RevolvingUtilizationOfUnsecuredLines <= 0.497\nmse = 0.094\nsamples = 67\nvalue = 0.104"] ;
501 -> 507 ;
508 [label="DebtRatio <= 0.232\nmse = 0.083\nsamples = 66\nvalue = 0.091"] ;
507 -> 508 ;
509 [label="mse = 0.188\nsamples = 12\nvalue = 0.25"] ;
508 -> 509 ;
510 [label="mse = 0.052\nsamples = 54\nvalue = 0.056"] ;
508 -> 510 ;
511 [label="mse = 0.0\nsamples = 1\nvalue = 1.0"] ;
507 -> 511 ;
512 [label="DebtRatio <= 0.003\nmse = 0.021\nsamples = 2333\nvalue = 0.021"] ;
500 -> 512 ;
513 [label="NumberOfOpenCreditLinesAndLoans <= 1.5\nmse = 0.222\nsamples = 3\nvalue = 0.333"] ;
512 -> 513 ;
514 [label="mse = 0.0\nsamples = 1\nvalue = 1.0"] ;
513 -> 514 ;
515 [label="mse = 0.0\nsamples = 2\nvalue = 0.0"] ;
513 -> 515 ;
516 [label="age <= 25.5\nmse = 0.02\nsamples = 2330\nvalue = 0.021"] ;
512 -> 516 ;
517 [label="MonthlyIncome <= 6250.0\nmse = 0.222\nsamples = 3\nvalue = 0.333"] ;
516 -> 517 ;
518 [label="mse = 0.0\nsamples = 1\nvalue = 1.0"] ;
517 -> 518 ;
519 [label="mse = 0.0\nsamples = 2\nvalue = 0.0"] ;
517 -> 519 ;
520 [label="MonthlyIncome <= 12043.0\nmse = 0.02\nsamples = 2327\nvalue = 0.02"] ;
516 -> 520 ;
521 [label="mse = 0.015\nsamples = 1878\nvalue = 0.015"] ;
520 -> 521 ;
522 [label="mse = 0.038\nsamples = 449\nvalue = 0.04"] ;
520 -> 522 ;
523 [label="MonthlyIncome <= 11245.0\nmse = 0.145\nsamples = 17\nvalue = 0.176"] ;
499 -> 523 ;
524 [label="DebtRatio <= 0.248\nmse = 0.066\nsamples = 14\nvalue = 0.071"] ;
523 -> 524 ;
525 [label="age <= 45.5\nmse = 0.222\nsamples = 3\nvalue = 0.333"] ;
524 -> 525 ;
526 [label="mse = 0.0\nsamples = 2\nvalue = 0.0"] ;
525 -> 526 ;
527 [label="mse = 0.0\nsamples = 1\nvalue = 1.0"] ;
525 -> 527 ;
528 [label="mse = 0.0\nsamples = 11\nvalue = 0.0"] ;
524 -> 528 ;
529 [label="RevolvingUtilizationOfUnsecuredLines <= 0.391\nmse = 0.222\nsamples = 3\nvalue = 0.667"] ;
523 -> 529 ;
530 [label="mse = 0.0\nsamples = 2\nvalue = 1.0"] ;
529 -> 530 ;
531 [label="mse = 0.0\nsamples = 1\nvalue = 0.0"] ;
529 -> 531 ;
532 [label="RevolvingUtilizationOfUnsecuredLines <= 0.5\nmse = 0.043\nsamples = 1660\nvalue = 0.045"] ;
498 -> 532 ;
533 [label="mse = 0.0\nsamples = 1\nvalue = 1.0"] ;
532 -> 533 ;
534 [label="MonthlyIncome <= 2749.0\nmse = 0.043\nsamples = 1659\nvalue = 0.045"] ;
532 -> 534 ;
535 [label="MonthlyIncome <= 2741.0\nmse = 0.081\nsamples = 191\nvalue = 0.089"] ;
534 -> 535 ;
536 [label="DebtRatio <= 0.099\nmse = 0.073\nsamples = 189\nvalue = 0.079"] ;
535 -> 536 ;
537 [label="DebtRatio <= 0.093\nmse = 0.139\nsamples = 48\nvalue = 0.167"] ;
536 -> 537 ;
538 [label="mse = 0.116\nsamples = 45\nvalue = 0.133"] ;
537 -> 538 ;
539 [label="mse = 0.222\nsamples = 3\nvalue = 0.667"] ;
537 -> 539 ;
540 [label="NumberOfOpenCreditLinesAndLoans <= 7.5\nmse = 0.047\nsamples = 141\nvalue = 0.05"] ;
536 -> 540 ;
541 [label="mse = 0.018\nsamples = 112\nvalue = 0.018"] ;
540 -> 541 ;
542 [label="mse = 0.143\nsamples = 29\nvalue = 0.172"] ;
540 -> 542 ;
543 [label="mse = 0.0\nsamples = 2\nvalue = 1.0"] ;
535 -> 543 ;
544 [label="RevolvingUtilizationOfUnsecuredLines <= 0.543\nmse = 0.037\nsamples = 1468\nvalue = 0.039"] ;
534 -> 544 ;
545 [label="RevolvingUtilizationOfUnsecuredLines <= 0.543\nmse = 0.049\nsamples = 678\nvalue = 0.052"] ;
544 -> 545 ;
546 [label="MonthlyIncome <= 5992.5\nmse = 0.048\nsamples = 677\nvalue = 0.05"] ;
545 -> 546 ;
547 [label="mse = 0.024\nsamples = 284\nvalue = 0.025"] ;
546 -> 547 ;
548 [label="mse = 0.064\nsamples = 393\nvalue = 0.069"] ;
546 -> 548 ;
549 [label="mse = 0.0\nsamples = 1\nvalue = 1.0"] ;
545 -> 549 ;
550 [label="NumberOfOpenCreditLinesAndLoans <= 22.5\nmse = 0.027\nsamples = 790\nvalue = 0.028"] ;
544 -> 550 ;
551 [label="DebtRatio <= 0.456\nmse = 0.026\nsamples = 786\nvalue = 0.027"] ;
550 -> 551 ;
552 [label="mse = 0.022\nsamples = 698\nvalue = 0.023"] ;
551 -> 552 ;
553 [label="mse = 0.054\nsamples = 88\nvalue = 0.057"] ;
551 -> 553 ;
554 [label="age <= 34.5\nmse = 0.188\nsamples = 4\nvalue = 0.25"] ;
550 -> 554 ;
555 [label="mse = 0.0\nsamples = 1\nvalue = 1.0"] ;
554 -> 555 ;
556 [label="mse = 0.0\nsamples = 3\nvalue = 0.0"] ;
554 -> 556 ;
557 [label="mse = 0.0\nsamples = 1\nvalue = 1.0"] ;
497 -> 557 ;
558 [label="DebtRatio <= 122.5\nmse = 0.057\nsamples = 3555\nvalue = 0.061"] ;
496 -> 558 ;
559 [label="RevolvingUtilizationOfUnsecuredLines <= 0.55\nmse = 0.072\nsamples = 2320\nvalue = 0.078"] ;
558 -> 559 ;
560 [label="DebtRatio <= 0.516\nmse = 0.063\nsamples = 2003\nvalue = 0.068"] ;
559 -> 560 ;
561 [label="mse = 0.0\nsamples = 1\nvalue = 1.0"] ;
560 -> 561 ;
562 [label="RevolvingUtilizationOfUnsecuredLines <= 0.296\nmse = 0.063\nsamples = 2002\nvalue = 0.067"] ;
560 -> 562 ;
563 [label="mse = 0.0\nsamples = 1\nvalue = 1.0"] ;
562 -> 563 ;
564 [label="DebtRatio <= 0.705\nmse = 0.062\nsamples = 2001\nvalue = 0.067"] ;
562 -> 564 ;
565 [label="MonthlyIncome <= 9862.5\nmse = 0.047\nsamples = 1016\nvalue = 0.049"] ;
564 -> 565 ;
566 [label="NumberRealEstateLoansOrLines <= 0.5\nmse = 0.041\nsamples = 924\nvalue = 0.043"] ;
565 -> 566 ;
567 [label="mse = 0.089\nsamples = 71\nvalue = 0.099"] ;
566 -> 567 ;
568 [label="mse = 0.037\nsamples = 853\nvalue = 0.039"] ;
566 -> 568 ;
569 [label="DebtRatio <= 0.695\nmse = 0.097\nsamples = 92\nvalue = 0.109"] ;
565 -> 569 ;
570 [label="mse = 0.081\nsamples = 90\nvalue = 0.089"] ;
569 -> 570 ;
571 [label="mse = 0.0\nsamples = 2\nvalue = 1.0"] ;
569 -> 571 ;
572 [label="NumberOfOpenCreditLinesAndLoans <= 28.5\nmse = 0.078\nsamples = 985\nvalue = 0.085"] ;
564 -> 572 ;
573 [label="DebtRatio <= 0.705\nmse = 0.077\nsamples = 982\nvalue = 0.084"] ;
572 -> 573 ;
574 [label="mse = 0.0\nsamples = 1\nvalue = 1.0"] ;
573 -> 574 ;
575 [label="mse = 0.076\nsamples = 981\nvalue = 0.083"] ;
573 -> 575 ;
576 [label="RevolvingUtilizationOfUnsecuredLines <= 0.436\nmse = 0.222\nsamples = 3\nvalue = 0.667"] ;
572 -> 576 ;
577 [label="mse = 0.0\nsamples = 2\nvalue = 1.0"] ;
576 -> 577 ;
578 [label="mse = 0.0\nsamples = 1\nvalue = 0.0"] ;
576 -> 578 ;
579 [label="DebtRatio <= 99.0\nmse = 0.12\nsamples = 317\nvalue = 0.139"] ;
559 -> 579 ;
580 [label="RevolvingUtilizationOfUnsecuredLines <= 0.55\nmse = 0.116\nsamples = 315\nvalue = 0.133"] ;
579 -> 580 ;
581 [label="mse = 0.0\nsamples = 1\nvalue = 1.0"] ;
580 -> 581 ;
582 [label="DebtRatio <= 1.054\nmse = 0.114\nsamples = 314\nvalue = 0.131"] ;
580 -> 582 ;
583 [label="age <= 26.5\nmse = 0.128\nsamples = 246\nvalue = 0.15"] ;
582 -> 583 ;
584 [label="NumberOfOpenCreditLinesAndLoans <= 7.0\nmse = 0.24\nsamples = 5\nvalue = 0.6"] ;
583 -> 584 ;
585 [label="mse = 0.0\nsamples = 2\nvalue = 0.0"] ;
584 -> 585 ;
586 [label="mse = 0.0\nsamples = 3\nvalue = 1.0"] ;
584 -> 586 ;
587 [label="RevolvingUtilizationOfUnsecuredLines <= 0.566\nmse = 0.121\nsamples = 241\nvalue = 0.141"] ;
583 -> 587 ;
588 [label="mse = 0.174\nsamples = 76\nvalue = 0.224"] ;
587 -> 588 ;
589 [label="mse = 0.092\nsamples = 165\nvalue = 0.103"] ;
587 -> 589 ;
590 [label="DebtRatio <= 5.593\nmse = 0.055\nsamples = 68\nvalue = 0.059"] ;
582 -> 590 ;
591 [label="NumberRealEstateLoansOrLines <= 3.5\nmse = 0.018\nsamples = 54\nvalue = 0.019"] ;
590 -> 591 ;
592 [label="mse = 0.0\nsamples = 52\nvalue = 0.0"] ;
591 -> 592 ;
593 [label="mse = 0.25\nsamples = 2\nvalue = 0.5"] ;
591 -> 593 ;
594 [label="NumberRealEstateLoansOrLines <= 0.5\nmse = 0.168\nsamples = 14\nvalue = 0.214"] ;
590 -> 594 ;
595 [label="mse = 0.076\nsamples = 12\nvalue = 0.083"] ;
594 -> 595 ;
596 [label="mse = 0.0\nsamples = 2\nvalue = 1.0"] ;
594 -> 596 ;
597 [label="mse = 0.0\nsamples = 2\nvalue = 1.0"] ;
579 -> 597 ;
598 [label="NumberOfOpenCreditLinesAndLoans <= 24.5\nmse = 0.028\nsamples = 1235\nvalue = 0.029"] ;
558 -> 598 ;
599 [label="DebtRatio <= 6295.0\nmse = 0.026\nsamples = 1229\nvalue = 0.027"] ;
598 -> 599 ;
600 [label="age <= 22.5\nmse = 0.021\nsamples = 1193\nvalue = 0.022"] ;
599 -> 600 ;
601 [label="age <= 21.5\nmse = 0.25\nsamples = 2\nvalue = 0.5"] ;
600 -> 601 ;
602 [label="mse = 0.0\nsamples = 1\nvalue = 0.0"] ;
601 -> 602 ;
603 [label="mse = 0.0\nsamples = 1\nvalue = 1.0"] ;
601 -> 603 ;
604 [label="RevolvingUtilizationOfUnsecuredLines <= 0.577\nmse = 0.021\nsamples = 1191\nvalue = 0.021"] ;
600 -> 604 ;
605 [label="DebtRatio <= 3104.5\nmse = 0.018\nsamples = 1121\nvalue = 0.018"] ;
604 -> 605 ;
606 [label="RevolvingUtilizationOfUnsecuredLines <= 0.447\nmse = 0.012\nsamples = 843\nvalue = 0.012"] ;
605 -> 606 ;
607 [label="mse = 0.002\nsamples = 537\nvalue = 0.002"] ;
606 -> 607 ;
608 [label="mse = 0.029\nsamples = 306\nvalue = 0.029"] ;
606 -> 608 ;
609 [label="DebtRatio <= 3109.0\nmse = 0.035\nsamples = 278\nvalue = 0.036"] ;
605 -> 609 ;
610 [label="mse = 0.0\nsamples = 1\nvalue = 1.0"] ;
609 -> 610 ;
611 [label="mse = 0.031\nsamples = 277\nvalue = 0.032"] ;
609 -> 611 ;
612 [label="RevolvingUtilizationOfUnsecuredLines <= 0.577\nmse = 0.066\nsamples = 70\nvalue = 0.071"] ;
604 -> 612 ;
613 [label="mse = 0.0\nsamples = 1\nvalue = 1.0"] ;
612 -> 613 ;
614 [label="NumberOfOpenCreditLinesAndLoans <= 2.5\nmse = 0.055\nsamples = 69\nvalue = 0.058"] ;
612 -> 614 ;
615 [label="mse = 0.222\nsamples = 3\nvalue = 0.333"] ;
614 -> 615 ;
616 [label="mse = 0.043\nsamples = 66\nvalue = 0.045"] ;
614 -> 616 ;
617 [label="DebtRatio <= 6323.0\nmse = 0.157\nsamples = 36\nvalue = 0.194"] ;
599 -> 617 ;
618 [label="mse = 0.0\nsamples = 1\nvalue = 1.0"] ;
617 -> 618 ;
619 [label="DebtRatio <= 29518.0\nmse = 0.142\nsamples = 35\nvalue = 0.171"] ;
617 -> 619 ;
620 [label="NumberOfDependents <= 0.379\nmse = 0.125\nsamples = 34\nvalue = 0.147"] ;
619 -> 620 ;
621 [label="NumberOfOpenCreditLinesAndLoans <= 9.5\nmse = 0.18\nsamples = 17\nvalue = 0.235"] ;
620 -> 621 ;
622 [label="mse = 0.0\nsamples = 7\nvalue = 0.0"] ;
621 -> 622 ;
623 [label="mse = 0.24\nsamples = 10\nvalue = 0.4"] ;
621 -> 623 ;
624 [label="NumberOfOpenCreditLinesAndLoans <= 8.5\nmse = 0.055\nsamples = 17\nvalue = 0.059"] ;
620 -> 624 ;
625 [label="mse = 0.222\nsamples = 3\nvalue = 0.333"] ;
624 -> 625 ;
626 [label="mse = 0.0\nsamples = 14\nvalue = 0.0"] ;
624 -> 626 ;
627 [label="mse = 0.0\nsamples = 1\nvalue = 1.0"] ;
619 -> 627 ;
628 [label="RevolvingUtilizationOfUnsecuredLines <= 0.444\nmse = 0.25\nsamples = 6\nvalue = 0.5"] ;
598 -> 628 ;
629 [label="mse = 0.0\nsamples = 3\nvalue = 0.0"] ;
628 -> 629 ;
630 [label="mse = 0.0\nsamples = 3\nvalue = 1.0"] ;
628 -> 630 ;
631 [label="MonthlyIncome <= 211500.0\nmse = 0.026\nsamples = 6851\nvalue = 0.027"] ;
495 -> 631 ;
632 [label="DebtRatio <= 0.004\nmse = 0.026\nsamples = 6849\nvalue = 0.027"] ;
631 -> 632 ;
633 [label="age <= 55.0\nmse = 0.188\nsamples = 8\nvalue = 0.25"] ;
632 -> 633 ;
634 [label="mse = 0.0\nsamples = 2\nvalue = 1.0"] ;
633 -> 634 ;
635 [label="mse = 0.0\nsamples = 6\nvalue = 0.0"] ;
633 -> 635 ;
636 [label="NumberOfOpenCreditLinesAndLoans <= 38.5\nmse = 0.026\nsamples = 6841\nvalue = 0.026"] ;
632 -> 636 ;
637 [label="RevolvingUtilizationOfUnsecuredLines <= 0.296\nmse = 0.026\nsamples = 6838\nvalue = 0.026"] ;
636 -> 637 ;
638 [label="age <= 54.0\nmse = 0.118\nsamples = 22\nvalue = 0.136"] ;
637 -> 638 ;
639 [label="mse = 0.0\nsamples = 1\nvalue = 1.0"] ;
638 -> 639 ;
640 [label="RevolvingUtilizationOfUnsecuredLines <= 0.296\nmse = 0.086\nsamples = 21\nvalue = 0.095"] ;
638 -> 640 ;
641 [label="NumberOfDependents <= 2.0\nmse = 0.048\nsamples = 20\nvalue = 0.05"] ;
640 -> 641 ;
642 [label="mse = 0.0\nsamples = 19\nvalue = 0.0"] ;
641 -> 642 ;
643 [label="mse = 0.0\nsamples = 1\nvalue = 1.0"] ;
641 -> 643 ;
644 [label="mse = 0.0\nsamples = 1\nvalue = 1.0"] ;
640 -> 644 ;
645 [label="DebtRatio <= 1295.0\nmse = 0.025\nsamples = 6816\nvalue = 0.026"] ;
637 -> 645 ;
646 [label="DebtRatio <= 1292.0\nmse = 0.027\nsamples = 5918\nvalue = 0.028"] ;
645 -> 646 ;
647 [label="MonthlyIncome <= 8100.5\nmse = 0.027\nsamples = 5917\nvalue = 0.028"] ;
646 -> 647 ;
648 [label="NumberOfOpenCreditLinesAndLoans <= 11.5\nmse = 0.031\nsamples = 4163\nvalue = 0.032"] ;
647 -> 648 ;
649 [label="mse = 0.026\nsamples = 2844\nvalue = 0.027"] ;
648 -> 649 ;
650 [label="mse = 0.043\nsamples = 1319\nvalue = 0.045"] ;
648 -> 650 ;
651 [label="age <= 87.5\nmse = 0.017\nsamples = 1754\nvalue = 0.018"] ;
647 -> 651 ;
652 [label="mse = 0.017\nsamples = 1751\nvalue = 0.017"] ;
651 -> 652 ;
653 [label="mse = 0.222\nsamples = 3\nvalue = 0.333"] ;
651 -> 653 ;
654 [label="mse = 0.0\nsamples = 1\nvalue = 1.0"] ;
646 -> 654 ;
655 [label="age <= 89.0\nmse = 0.011\nsamples = 898\nvalue = 0.011"] ;
645 -> 655 ;
656 [label="RevolvingUtilizationOfUnsecuredLines <= 0.597\nmse = 0.01\nsamples = 896\nvalue = 0.01"] ;
655 -> 656 ;
657 [label="NumberOfOpenCreditLinesAndLoans <= 17.5\nmse = 0.009\nsamples = 889\nvalue = 0.009"] ;
656 -> 657 ;
658 [label="mse = 0.006\nsamples = 781\nvalue = 0.006"] ;
657 -> 658 ;
659 [label="mse = 0.027\nsamples = 108\nvalue = 0.028"] ;
657 -> 659 ;
660 [label="RevolvingUtilizationOfUnsecuredLines <= 0.597\nmse = 0.122\nsamples = 7\nvalue = 0.143"] ;
656 -> 660 ;
661 [label="mse = 0.0\nsamples = 1\nvalue = 1.0"] ;
660 -> 661 ;
662 [label="mse = 0.0\nsamples = 6\nvalue = 0.0"] ;
660 -> 662 ;
663 [label="age <= 90.5\nmse = 0.25\nsamples = 2\nvalue = 0.5"] ;
655 -> 663 ;
664 [label="mse = 0.0\nsamples = 1\nvalue = 1.0"] ;
663 -> 664 ;
665 [label="mse = 0.0\nsamples = 1\nvalue = 0.0"] ;
663 -> 665 ;
666 [label="MonthlyIncome <= 15862.0\nmse = 0.222\nsamples = 3\nvalue = 0.333"] ;
636 -> 666 ;
667 [label="mse = 0.0\nsamples = 2\nvalue = 0.0"] ;
666 -> 667 ;
668 [label="mse = 0.0\nsamples = 1\nvalue = 1.0"] ;
666 -> 668 ;
669 [label="MonthlyIncome <= 416184.5\nmse = 0.25\nsamples = 2\nvalue = 0.5"] ;
631 -> 669 ;
670 [label="mse = 0.0\nsamples = 1\nvalue = 1.0"] ;
669 -> 670 ;
671 [label="mse = 0.0\nsamples = 1\nvalue = 0.0"] ;
669 -> 671 ;
672 [label="DebtRatio <= 0.239\nmse = 0.105\nsamples = 234\nvalue = 0.12"] ;
494 -> 672 ;
673 [label="NumberOfDependents <= 1.0\nmse = 0.222\nsamples = 3\nvalue = 0.667"] ;
672 -> 673 ;
674 [label="mse = 0.0\nsamples = 2\nvalue = 1.0"] ;
673 -> 674 ;
675 [label="mse = 0.0\nsamples = 1\nvalue = 0.0"] ;
673 -> 675 ;
676 [label="RevolvingUtilizationOfUnsecuredLines <= 0.59\nmse = 0.1\nsamples = 231\nvalue = 0.113"] ;
672 -> 676 ;
677 [label="NumberOfDependents <= 5.0\nmse = 0.094\nsamples = 228\nvalue = 0.105"] ;
676 -> 677 ;
678 [label="age <= 53.5\nmse = 0.091\nsamples = 227\nvalue = 0.101"] ;
677 -> 678 ;
679 [label="RevolvingUtilizationOfUnsecuredLines <= 0.514\nmse = 0.126\nsamples = 128\nvalue = 0.148"] ;
678 -> 679 ;
680 [label="MonthlyIncome <= 44104.0\nmse = 0.101\nsamples = 114\nvalue = 0.114"] ;
679 -> 680 ;
681 [label="age <= 45.5\nmse = 0.095\nsamples = 113\nvalue = 0.106"] ;
680 -> 681 ;
682 [label="NumberOfDependents <= 2.5\nmse = 0.048\nsamples = 59\nvalue = 0.051"] ;
681 -> 682 ;
683 [label="NumberOfOpenCreditLinesAndLoans <= 9.5\nmse = 0.02\nsamples = 50\nvalue = 0.02"] ;
682 -> 683 ;
684 [label="mse = 0.109\nsamples = 8\nvalue = 0.125"] ;
683 -> 684 ;
685 [label="mse = 0.0\nsamples = 42\nvalue = 0.0"] ;
683 -> 685 ;
686 [label="RevolvingUtilizationOfUnsecuredLines <= 0.47\nmse = 0.173\nsamples = 9\nvalue = 0.222"] ;
682 -> 686 ;
687 [label="mse = 0.0\nsamples = 6\nvalue = 0.0"] ;
686 -> 687 ;
688 [label="mse = 0.222\nsamples = 3\nvalue = 0.667"] ;
686 -> 688 ;
689 [label="DebtRatio <= 0.886\nmse = 0.139\nsamples = 54\nvalue = 0.167"] ;
681 -> 689 ;
690 [label="MonthlyIncome <= 17983.5\nmse = 0.078\nsamples = 35\nvalue = 0.086"] ;
689 -> 690 ;
691 [label="mse = 0.0\nsamples = 24\nvalue = 0.0"] ;
690 -> 691 ;
692 [label="mse = 0.198\nsamples = 11\nvalue = 0.273"] ;
690 -> 692 ;
693 [label="DebtRatio <= 4.259\nmse = 0.216\nsamples = 19\nvalue = 0.316"] ;
689 -> 693 ;
694 [label="mse = 0.25\nsamples = 12\nvalue = 0.5"] ;
693 -> 694 ;
695 [label="mse = 0.0\nsamples = 7\nvalue = 0.0"] ;
693 -> 695 ;
696 [label="mse = 0.0\nsamples = 1\nvalue = 1.0"] ;
680 -> 696 ;
697 [label="NumberOfDependents <= 0.5\nmse = 0.245\nsamples = 14\nvalue = 0.429"] ;
679 -> 697 ;
698 [label="NumberOfOpenCreditLinesAndLoans <= 20.0\nmse = 0.222\nsamples = 6\nvalue = 0.667"] ;
697 -> 698 ;
699 [label="mse = 0.0\nsamples = 4\nvalue = 1.0"] ;
698 -> 699 ;
700 [label="mse = 0.0\nsamples = 2\nvalue = 0.0"] ;
698 -> 700 ;
701 [label="DebtRatio <= 0.519\nmse = 0.188\nsamples = 8\nvalue = 0.25"] ;
697 -> 701 ;
702 [label="NumberOfDependents <= 3.0\nmse = 0.222\nsamples = 3\nvalue = 0.667"] ;
701 -> 702 ;
703 [label="mse = 0.0\nsamples = 2\nvalue = 1.0"] ;
702 -> 703 ;
704 [label="mse = 0.0\nsamples = 1\nvalue = 0.0"] ;
702 -> 704 ;
705 [label="mse = 0.0\nsamples = 5\nvalue = 0.0"] ;
701 -> 705 ;
706 [label="MonthlyIncome <= 4458.0\nmse = 0.039\nsamples = 99\nvalue = 0.04"] ;
678 -> 706 ;
707 [label="NumberRealEstateLoansOrLines <= 7.0\nmse = 0.222\nsamples = 3\nvalue = 0.333"] ;
706 -> 707 ;
708 [label="mse = 0.0\nsamples = 2\nvalue = 0.0"] ;
707 -> 708 ;
709 [label="mse = 0.0\nsamples = 1\nvalue = 1.0"] ;
707 -> 709 ;
710 [label="NumberOfOpenCreditLinesAndLoans <= 9.5\nmse = 0.03\nsamples = 96\nvalue = 0.031"] ;
706 -> 710 ;
711 [label="age <= 59.0\nmse = 0.122\nsamples = 7\nvalue = 0.143"] ;
710 -> 711 ;
712 [label="RevolvingUtilizationOfUnsecuredLines <= 0.324\nmse = 0.25\nsamples = 2\nvalue = 0.5"] ;
711 -> 712 ;
713 [label="mse = 0.0\nsamples = 1\nvalue = 0.0"] ;
712 -> 713 ;
714 [label="mse = 0.0\nsamples = 1\nvalue = 1.0"] ;
712 -> 714 ;
715 [label="mse = 0.0\nsamples = 5\nvalue = 0.0"] ;
711 -> 715 ;
716 [label="NumberOfOpenCreditLinesAndLoans <= 28.5\nmse = 0.022\nsamples = 89\nvalue = 0.022"] ;
710 -> 716 ;
717 [label="age <= 57.5\nmse = 0.012\nsamples = 80\nvalue = 0.012"] ;
716 -> 717 ;
718 [label="age <= 56.5\nmse = 0.043\nsamples = 22\nvalue = 0.045"] ;
717 -> 718 ;
719 [label="mse = 0.0\nsamples = 16\nvalue = 0.0"] ;
718 -> 719 ;
720 [label="mse = 0.139\nsamples = 6\nvalue = 0.167"] ;
718 -> 720 ;
721 [label="mse = 0.0\nsamples = 58\nvalue = 0.0"] ;
717 -> 721 ;
722 [label="RevolvingUtilizationOfUnsecuredLines <= 0.454\nmse = 0.099\nsamples = 9\nvalue = 0.111"] ;
716 -> 722 ;
723 [label="NumberRealEstateLoansOrLines <= 8.5\nmse = 0.25\nsamples = 2\nvalue = 0.5"] ;
722 -> 723 ;
724 [label="mse = 0.0\nsamples = 1\nvalue = 1.0"] ;
723 -> 724 ;
725 [label="mse = 0.0\nsamples = 1\nvalue = 0.0"] ;
723 -> 725 ;
726 [label="mse = 0.0\nsamples = 7\nvalue = 0.0"] ;
722 -> 726 ;
727 [label="mse = 0.0\nsamples = 1\nvalue = 1.0"] ;
677 -> 727 ;
728 [label="NumberOfOpenCreditLinesAndLoans <= 14.0\nmse = 0.222\nsamples = 3\nvalue = 0.667"] ;
676 -> 728 ;
729 [label="mse = 0.0\nsamples = 1\nvalue = 0.0"] ;
728 -> 729 ;
730 [label="mse = 0.0\nsamples = 2\nvalue = 1.0"] ;
728 -> 730 ;
731 [label="NumberOfTime60-89DaysPastDueNotWorse <= 1.5\nmse = 0.105\nsamples = 1408\nvalue = 0.119"] ;
3 -> 731 ;
732 [label="RevolvingUtilizationOfUnsecuredLines <= 0.061\nmse = 0.094\nsamples = 1288\nvalue = 0.106"] ;
731 -> 732 ;
733 [label="NumberOfOpenCreditLinesAndLoans <= 1.5\nmse = 0.06\nsamples = 454\nvalue = 0.064"] ;
732 -> 733 ;
734 [label="age <= 60.5\nmse = 0.245\nsamples = 7\nvalue = 0.429"] ;
733 -> 734 ;
735 [label="age <= 29.0\nmse = 0.222\nsamples = 6\nvalue = 0.333"] ;
734 -> 735 ;
736 [label="MonthlyIncome <= 1320.0\nmse = 0.222\nsamples = 3\nvalue = 0.667"] ;
735 -> 736 ;
737 [label="mse = 0.0\nsamples = 1\nvalue = 0.0"] ;
736 -> 737 ;
738 [label="mse = 0.0\nsamples = 2\nvalue = 1.0"] ;
736 -> 738 ;
739 [label="mse = 0.0\nsamples = 3\nvalue = 0.0"] ;
735 -> 739 ;
740 [label="mse = 0.0\nsamples = 1\nvalue = 1.0"] ;
734 -> 740 ;
741 [label="MonthlyIncome <= 3614.0\nmse = 0.055\nsamples = 447\nvalue = 0.058"] ;
733 -> 741 ;
742 [label="MonthlyIncome <= 3592.0\nmse = 0.095\nsamples = 113\nvalue = 0.106"] ;
741 -> 742 ;
743 [label="RevolvingUtilizationOfUnsecuredLines <= 0.002\nmse = 0.082\nsamples = 111\nvalue = 0.09"] ;
742 -> 743 ;
744 [label="age <= 82.5\nmse = 0.147\nsamples = 39\nvalue = 0.179"] ;
743 -> 744 ;
745 [label="RevolvingUtilizationOfUnsecuredLines <= 0.001\nmse = 0.133\nsamples = 38\nvalue = 0.158"] ;
744 -> 745 ;
746 [label="DebtRatio <= 0.139\nmse = 0.117\nsamples = 37\nvalue = 0.135"] ;
745 -> 746 ;
747 [label="mse = 0.0\nsamples = 10\nvalue = 0.0"] ;
746 -> 747 ;
748 [label="DebtRatio <= 0.158\nmse = 0.151\nsamples = 27\nvalue = 0.185"] ;
746 -> 748 ;
749 [label="mse = 0.0\nsamples = 1\nvalue = 1.0"] ;
748 -> 749 ;
750 [label="age <= 67.0\nmse = 0.13\nsamples = 26\nvalue = 0.154"] ;
748 -> 750 ;
751 [label="mse = 0.109\nsamples = 24\nvalue = 0.125"] ;
750 -> 751 ;
752 [label="mse = 0.25\nsamples = 2\nvalue = 0.5"] ;
750 -> 752 ;
753 [label="mse = 0.0\nsamples = 1\nvalue = 1.0"] ;
745 -> 753 ;
754 [label="mse = 0.0\nsamples = 1\nvalue = 1.0"] ;
744 -> 754 ;
755 [label="MonthlyIncome <= 3205.0\nmse = 0.04\nsamples = 72\nvalue = 0.042"] ;
743 -> 755 ;
756 [label="mse = 0.0\nsamples = 59\nvalue = 0.0"] ;
755 -> 756 ;
757 [label="MonthlyIncome <= 3273.5\nmse = 0.178\nsamples = 13\nvalue = 0.231"] ;
755 -> 757 ;
758 [label="mse = 0.0\nsamples = 2\nvalue = 1.0"] ;
757 -> 758 ;
759 [label="NumberOfOpenCreditLinesAndLoans <= 6.5\nmse = 0.083\nsamples = 11\nvalue = 0.091"] ;
757 -> 759 ;
760 [label="age <= 62.5\nmse = 0.188\nsamples = 4\nvalue = 0.25"] ;
759 -> 760 ;
761 [label="mse = 0.0\nsamples = 3\nvalue = 0.0"] ;
760 -> 761 ;
762 [label="mse = 0.0\nsamples = 1\nvalue = 1.0"] ;
760 -> 762 ;
763 [label="mse = 0.0\nsamples = 7\nvalue = 0.0"] ;
759 -> 763 ;
764 [label="mse = 0.0\nsamples = 2\nvalue = 1.0"] ;
742 -> 764 ;
765 [label="DebtRatio <= 0.146\nmse = 0.04\nsamples = 334\nvalue = 0.042"] ;
741 -> 765 ;
766 [label="DebtRatio <= 0.144\nmse = 0.093\nsamples = 77\nvalue = 0.104"] ;
765 -> 766 ;
767 [label="RevolvingUtilizationOfUnsecuredLines <= 0.049\nmse = 0.084\nsamples = 76\nvalue = 0.092"] ;
766 -> 767 ;
768 [label="age <= 53.5\nmse = 0.065\nsamples = 71\nvalue = 0.07"] ;
767 -> 768 ;
769 [label="mse = 0.0\nsamples = 28\nvalue = 0.0"] ;
768 -> 769 ;
770 [label="NumberOfDependents <= 2.0\nmse = 0.103\nsamples = 43\nvalue = 0.116"] ;
768 -> 770 ;
771 [label="RevolvingUtilizationOfUnsecuredLines <= 0.017\nmse = 0.086\nsamples = 42\nvalue = 0.095"] ;
770 -> 771 ;
772 [label="RevolvingUtilizationOfUnsecuredLines <= 0.015\nmse = 0.122\nsamples = 28\nvalue = 0.143"] ;
771 -> 772 ;
773 [label="mse = 0.099\nsamples = 27\nvalue = 0.111"] ;
772 -> 773 ;
774 [label="mse = 0.0\nsamples = 1\nvalue = 1.0"] ;
772 -> 774 ;
775 [label="mse = 0.0\nsamples = 14\nvalue = 0.0"] ;
771 -> 775 ;
776 [label="mse = 0.0\nsamples = 1\nvalue = 1.0"] ;
770 -> 776 ;
777 [label="NumberOfOpenCreditLinesAndLoans <= 8.0\nmse = 0.24\nsamples = 5\nvalue = 0.4"] ;
767 -> 777 ;
778 [label="mse = 0.0\nsamples = 2\nvalue = 0.0"] ;
777 -> 778 ;
779 [label="RevolvingUtilizationOfUnsecuredLines <= 0.057\nmse = 0.222\nsamples = 3\nvalue = 0.667"] ;
777 -> 779 ;
780 [label="mse = 0.0\nsamples = 2\nvalue = 1.0"] ;
779 -> 780 ;
781 [label="mse = 0.0\nsamples = 1\nvalue = 0.0"] ;
779 -> 781 ;
782 [label="mse = 0.0\nsamples = 1\nvalue = 1.0"] ;
766 -> 782 ;
783 [label="NumberRealEstateLoansOrLines <= 4.5\nmse = 0.023\nsamples = 257\nvalue = 0.023"] ;
765 -> 783 ;
784 [label="NumberOfOpenCreditLinesAndLoans <= 2.5\nmse = 0.019\nsamples = 252\nvalue = 0.02"] ;
783 -> 784 ;
785 [label="NumberRealEstateLoansOrLines <= 0.5\nmse = 0.139\nsamples = 6\nvalue = 0.167"] ;
784 -> 785 ;
786 [label="mse = 0.0\nsamples = 5\nvalue = 0.0"] ;
785 -> 786 ;
787 [label="mse = 0.0\nsamples = 1\nvalue = 1.0"] ;
785 -> 787 ;
788 [label="RevolvingUtilizationOfUnsecuredLines <= 0.016\nmse = 0.016\nsamples = 246\nvalue = 0.016"] ;
784 -> 788 ;
789 [label="mse = 0.0\nsamples = 135\nvalue = 0.0"] ;
788 -> 789 ;
790 [label="RevolvingUtilizationOfUnsecuredLines <= 0.017\nmse = 0.035\nsamples = 111\nvalue = 0.036"] ;
788 -> 790 ;
791 [label="mse = 0.0\nsamples = 1\nvalue = 1.0"] ;
790 -> 791 ;
792 [label="DebtRatio <= 0.273\nmse = 0.027\nsamples = 110\nvalue = 0.027"] ;
790 -> 792 ;
793 [label="RevolvingUtilizationOfUnsecuredLines <= 0.019\nmse = 0.096\nsamples = 28\nvalue = 0.107"] ;
792 -> 793 ;
794 [label="mse = 0.0\nsamples = 1\nvalue = 1.0"] ;
793 -> 794 ;
795 [label="mse = 0.069\nsamples = 27\nvalue = 0.074"] ;
793 -> 795 ;
796 [label="mse = 0.0\nsamples = 82\nvalue = 0.0"] ;
792 -> 796 ;
797 [label="NumberOfOpenCreditLinesAndLoans <= 22.0\nmse = 0.16\nsamples = 5\nvalue = 0.2"] ;
783 -> 797 ;
798 [label="mse = 0.0\nsamples = 3\nvalue = 0.0"] ;
797 -> 798 ;
799 [label="MonthlyIncome <= 12275.0\nmse = 0.25\nsamples = 2\nvalue = 0.5"] ;
797 -> 799 ;
800 [label="mse = 0.0\nsamples = 1\nvalue = 1.0"] ;
799 -> 800 ;
801 [label="mse = 0.0\nsamples = 1\nvalue = 0.0"] ;
799 -> 801 ;
802 [label="NumberOfDependents <= 0.379\nmse = 0.112\nsamples = 834\nvalue = 0.128"] ;
732 -> 802 ;
803 [label="age <= 22.5\nmse = 0.134\nsamples = 438\nvalue = 0.16"] ;
802 -> 803 ;
804 [label="mse = 0.0\nsamples = 1\nvalue = 1.0"] ;
803 -> 804 ;
805 [label="RevolvingUtilizationOfUnsecuredLines <= 0.061\nmse = 0.133\nsamples = 437\nvalue = 0.158"] ;
803 -> 805 ;
806 [label="mse = 0.0\nsamples = 1\nvalue = 1.0"] ;
805 -> 806 ;
807 [label="MonthlyIncome <= 1343.5\nmse = 0.132\nsamples = 436\nvalue = 0.156"] ;
805 -> 807 ;
808 [label="mse = 0.0\nsamples = 26\nvalue = 0.0"] ;
807 -> 808 ;
809 [label="MonthlyIncome <= 1894.0\nmse = 0.138\nsamples = 410\nvalue = 0.166"] ;
807 -> 809 ;
810 [label="age <= 67.5\nmse = 0.24\nsamples = 20\nvalue = 0.4"] ;
809 -> 810 ;
811 [label="RevolvingUtilizationOfUnsecuredLines <= 0.167\nmse = 0.222\nsamples = 18\nvalue = 0.333"] ;
810 -> 811 ;
812 [label="NumberRealEstateLoansOrLines <= 1.5\nmse = 0.188\nsamples = 4\nvalue = 0.75"] ;
811 -> 812 ;
813 [label="mse = 0.0\nsamples = 3\nvalue = 1.0"] ;
812 -> 813 ;
814 [label="mse = 0.0\nsamples = 1\nvalue = 0.0"] ;
812 -> 814 ;
815 [label="MonthlyIncome <= 1490.0\nmse = 0.168\nsamples = 14\nvalue = 0.214"] ;
811 -> 815 ;
816 [label="RevolvingUtilizationOfUnsecuredLines <= 0.462\nmse = 0.222\nsamples = 3\nvalue = 0.667"] ;
815 -> 816 ;
817 [label="mse = 0.0\nsamples = 2\nvalue = 1.0"] ;
816 -> 817 ;
818 [label="mse = 0.0\nsamples = 1\nvalue = 0.0"] ;
816 -> 818 ;
819 [label="MonthlyIncome <= 1785.0\nmse = 0.083\nsamples = 11\nvalue = 0.091"] ;
815 -> 819 ;
820 [label="mse = 0.0\nsamples = 7\nvalue = 0.0"] ;
819 -> 820 ;
821 [label="mse = 0.188\nsamples = 4\nvalue = 0.25"] ;
819 -> 821 ;
822 [label="mse = 0.0\nsamples = 2\nvalue = 1.0"] ;
810 -> 822 ;
823 [label="NumberOfOpenCreditLinesAndLoans <= 3.5\nmse = 0.13\nsamples = 390\nvalue = 0.154"] ;
809 -> 823 ;
824 [label="DebtRatio <= 0.087\nmse = 0.206\nsamples = 31\nvalue = 0.29"] ;
823 -> 824 ;
825 [label="age <= 84.0\nmse = 0.104\nsamples = 17\nvalue = 0.118"] ;
824 -> 825 ;
826 [label="RevolvingUtilizationOfUnsecuredLines <= 0.158\nmse = 0.059\nsamples = 16\nvalue = 0.062"] ;
825 -> 826 ;
827 [label="mse = 0.222\nsamples = 3\nvalue = 0.333"] ;
826 -> 827 ;
828 [label="mse = 0.0\nsamples = 13\nvalue = 0.0"] ;
826 -> 828 ;
829 [label="mse = 0.0\nsamples = 1\nvalue = 1.0"] ;
825 -> 829 ;
830 [label="age <= 35.0\nmse = 0.25\nsamples = 14\nvalue = 0.5"] ;
824 -> 830 ;
831 [label="mse = 0.0\nsamples = 6\nvalue = 1.0"] ;
830 -> 831 ;
832 [label="DebtRatio <= 0.111\nmse = 0.109\nsamples = 8\nvalue = 0.125"] ;
830 -> 832 ;
833 [label="mse = 0.0\nsamples = 1\nvalue = 1.0"] ;
832 -> 833 ;
834 [label="mse = 0.0\nsamples = 7\nvalue = 0.0"] ;
832 -> 834 ;
835 [label="NumberOfOpenCreditLinesAndLoans <= 5.5\nmse = 0.122\nsamples = 359\nvalue = 0.142"] ;
823 -> 835 ;
836 [label="RevolvingUtilizationOfUnsecuredLines <= 0.542\nmse = 0.052\nsamples = 72\nvalue = 0.056"] ;
835 -> 836 ;
837 [label="RevolvingUtilizationOfUnsecuredLines <= 0.301\nmse = 0.029\nsamples = 67\nvalue = 0.03"] ;
836 -> 837 ;
838 [label="mse = 0.0\nsamples = 39\nvalue = 0.0"] ;
837 -> 838 ;
839 [label="mse = 0.066\nsamples = 28\nvalue = 0.071"] ;
837 -> 839 ;
840 [label="RevolvingUtilizationOfUnsecuredLines <= 0.579\nmse = 0.24\nsamples = 5\nvalue = 0.4"] ;
836 -> 840 ;
841 [label="mse = 0.0\nsamples = 2\nvalue = 1.0"] ;
840 -> 841 ;
842 [label="mse = 0.0\nsamples = 3\nvalue = 0.0"] ;
840 -> 842 ;
843 [label="DebtRatio <= 0.031\nmse = 0.137\nsamples = 287\nvalue = 0.164"] ;
835 -> 843 ;
844 [label="RevolvingUtilizationOfUnsecuredLines <= 0.087\nmse = 0.25\nsamples = 6\nvalue = 0.5"] ;
843 -> 844 ;
845 [label="mse = 0.0\nsamples = 3\nvalue = 0.0"] ;
844 -> 845 ;
846 [label="mse = 0.0\nsamples = 3\nvalue = 1.0"] ;
844 -> 846 ;
847 [label="DebtRatio <= 0.822\nmse = 0.132\nsamples = 281\nvalue = 0.157"] ;
843 -> 847 ;
848 [label="mse = 0.111\nsamples = 212\nvalue = 0.127"] ;
847 -> 848 ;
849 [label="mse = 0.186\nsamples = 69\nvalue = 0.246"] ;
847 -> 849 ;
850 [label="DebtRatio <= 0.011\nmse = 0.085\nsamples = 396\nvalue = 0.093"] ;
802 -> 850 ;
851 [label="age <= 36.0\nmse = 0.25\nsamples = 4\nvalue = 0.5"] ;
850 -> 851 ;
852 [label="mse = 0.0\nsamples = 2\nvalue = 1.0"] ;
851 -> 852 ;
853 [label="mse = 0.0\nsamples = 2\nvalue = 0.0"] ;
851 -> 853 ;
854 [label="RevolvingUtilizationOfUnsecuredLines <= 0.419\nmse = 0.081\nsamples = 392\nvalue = 0.089"] ;
850 -> 854 ;
855 [label="NumberRealEstateLoansOrLines <= 4.5\nmse = 0.064\nsamples = 290\nvalue = 0.069"] ;
854 -> 855 ;
856 [label="RevolvingUtilizationOfUnsecuredLines <= 0.073\nmse = 0.062\nsamples = 288\nvalue = 0.066"] ;
855 -> 856 ;
857 [label="RevolvingUtilizationOfUnsecuredLines <= 0.072\nmse = 0.152\nsamples = 16\nvalue = 0.188"] ;
856 -> 857 ;
858 [label="NumberOfDependents <= 1.5\nmse = 0.066\nsamples = 14\nvalue = 0.071"] ;
857 -> 858 ;
859 [label="MonthlyIncome <= 6635.0\nmse = 0.188\nsamples = 4\nvalue = 0.25"] ;
858 -> 859 ;
860 [label="mse = 0.0\nsamples = 3\nvalue = 0.0"] ;
859 -> 860 ;
861 [label="mse = 0.0\nsamples = 1\nvalue = 1.0"] ;
859 -> 861 ;
862 [label="mse = 0.0\nsamples = 10\nvalue = 0.0"] ;
858 -> 862 ;
863 [label="mse = 0.0\nsamples = 2\nvalue = 1.0"] ;
857 -> 863 ;
864 [label="NumberOfDependents <= 3.5\nmse = 0.055\nsamples = 272\nvalue = 0.059"] ;
856 -> 864 ;
865 [label="DebtRatio <= 3950.0\nmse = 0.048\nsamples = 256\nvalue = 0.051"] ;
864 -> 865 ;
866 [label="MonthlyIncome <= 5005.0\nmse = 0.045\nsamples = 253\nvalue = 0.047"] ;
865 -> 866 ;
867 [label="RevolvingUtilizationOfUnsecuredLines <= 0.197\nmse = 0.079\nsamples = 81\nvalue = 0.086"] ;
866 -> 867 ;
868 [label="mse = 0.17\nsamples = 23\nvalue = 0.217"] ;
867 -> 868 ;
869 [label="mse = 0.033\nsamples = 58\nvalue = 0.034"] ;
867 -> 869 ;
870 [label="MonthlyIncome <= 19950.0\nmse = 0.028\nsamples = 172\nvalue = 0.029"] ;
866 -> 870 ;
871 [label="mse = 0.023\nsamples = 168\nvalue = 0.024"] ;
870 -> 871 ;
872 [label="mse = 0.188\nsamples = 4\nvalue = 0.25"] ;
870 -> 872 ;
873 [label="age <= 59.0\nmse = 0.222\nsamples = 3\nvalue = 0.333"] ;
865 -> 873 ;
874 [label="mse = 0.0\nsamples = 2\nvalue = 0.0"] ;
873 -> 874 ;
875 [label="mse = 0.0\nsamples = 1\nvalue = 1.0"] ;
873 -> 875 ;
876 [label="DebtRatio <= 0.095\nmse = 0.152\nsamples = 16\nvalue = 0.188"] ;
864 -> 876 ;
877 [label="mse = 0.0\nsamples = 1\nvalue = 1.0"] ;
876 -> 877 ;
878 [label="age <= 38.5\nmse = 0.116\nsamples = 15\nvalue = 0.133"] ;
876 -> 878 ;
879 [label="NumberRealEstateLoansOrLines <= 0.5\nmse = 0.25\nsamples = 4\nvalue = 0.5"] ;
878 -> 879 ;
880 [label="mse = 0.0\nsamples = 2\nvalue = 0.0"] ;
879 -> 880 ;
881 [label="mse = 0.0\nsamples = 2\nvalue = 1.0"] ;
879 -> 881 ;
882 [label="mse = 0.0\nsamples = 11\nvalue = 0.0"] ;
878 -> 882 ;
883 [label="NumberOfDependents <= 2.0\nmse = 0.25\nsamples = 2\nvalue = 0.5"] ;
855 -> 883 ;
884 [label="mse = 0.0\nsamples = 1\nvalue = 0.0"] ;
883 -> 884 ;
885 [label="mse = 0.0\nsamples = 1\nvalue = 1.0"] ;
883 -> 885 ;
886 [label="age <= 38.5\nmse = 0.125\nsamples = 102\nvalue = 0.147"] ;
854 -> 886 ;
887 [label="RevolvingUtilizationOfUnsecuredLines <= 0.512\nmse = 0.213\nsamples = 26\nvalue = 0.308"] ;
886 -> 887 ;
888 [label="NumberOfDependents <= 1.5\nmse = 0.249\nsamples = 15\nvalue = 0.467"] ;
887 -> 888 ;
889 [label="RevolvingUtilizationOfUnsecuredLines <= 0.495\nmse = 0.16\nsamples = 10\nvalue = 0.2"] ;
888 -> 889 ;
890 [label="mse = 0.0\nsamples = 7\nvalue = 0.0"] ;
889 -> 890 ;
891 [label="DebtRatio <= 0.27\nmse = 0.222\nsamples = 3\nvalue = 0.667"] ;
889 -> 891 ;
892 [label="mse = 0.0\nsamples = 1\nvalue = 0.0"] ;
891 -> 892 ;
893 [label="mse = 0.0\nsamples = 2\nvalue = 1.0"] ;
891 -> 893 ;
894 [label="mse = 0.0\nsamples = 5\nvalue = 1.0"] ;
888 -> 894 ;
895 [label="MonthlyIncome <= 1790.0\nmse = 0.083\nsamples = 11\nvalue = 0.091"] ;
887 -> 895 ;
896 [label="mse = 0.0\nsamples = 1\nvalue = 1.0"] ;
895 -> 896 ;
897 [label="mse = 0.0\nsamples = 10\nvalue = 0.0"] ;
895 -> 897 ;
898 [label="NumberOfOpenCreditLinesAndLoans <= 20.5\nmse = 0.084\nsamples = 76\nvalue = 0.092"] ;
886 -> 898 ;
899 [label="MonthlyIncome <= 6074.5\nmse = 0.074\nsamples = 75\nvalue = 0.08"] ;
898 -> 899 ;
900 [label="mse = 0.0\nsamples = 36\nvalue = 0.0"] ;
899 -> 900 ;
901 [label="MonthlyIncome <= 6141.5\nmse = 0.13\nsamples = 39\nvalue = 0.154"] ;
899 -> 901 ;
902 [label="mse = 0.0\nsamples = 1\nvalue = 1.0"] ;
901 -> 902 ;
903 [label="RevolvingUtilizationOfUnsecuredLines <= 0.594\nmse = 0.114\nsamples = 38\nvalue = 0.132"] ;
901 -> 903 ;
904 [label="age <= 50.5\nmse = 0.096\nsamples = 37\nvalue = 0.108"] ;
903 -> 904 ;
905 [label="mse = 0.0\nsamples = 21\nvalue = 0.0"] ;
904 -> 905 ;
906 [label="mse = 0.188\nsamples = 16\nvalue = 0.25"] ;
904 -> 906 ;
907 [label="mse = 0.0\nsamples = 1\nvalue = 1.0"] ;
903 -> 907 ;
908 [label="mse = 0.0\nsamples = 1\nvalue = 1.0"] ;
898 -> 908 ;
909 [label="MonthlyIncome <= 1575.0\nmse = 0.196\nsamples = 120\nvalue = 0.267"] ;
731 -> 909 ;
910 [label="mse = 0.0\nsamples = 2\nvalue = 1.0"] ;
909 -> 910 ;
911 [label="MonthlyIncome <= 4809.0\nmse = 0.19\nsamples = 118\nvalue = 0.254"] ;
909 -> 911 ;
912 [label="age <= 61.0\nmse = 0.094\nsamples = 38\nvalue = 0.105"] ;
911 -> 912 ;
913 [label="DebtRatio <= 0.757\nmse = 0.03\nsamples = 32\nvalue = 0.031"] ;
912 -> 913 ;
914 [label="mse = 0.0\nsamples = 27\nvalue = 0.0"] ;
913 -> 914 ;
915 [label="NumberOfOpenCreditLinesAndLoans <= 9.0\nmse = 0.16\nsamples = 5\nvalue = 0.2"] ;
913 -> 915 ;
916 [label="mse = 0.0\nsamples = 1\nvalue = 1.0"] ;
915 -> 916 ;
917 [label="mse = 0.0\nsamples = 4\nvalue = 0.0"] ;
915 -> 917 ;
918 [label="NumberOfOpenCreditLinesAndLoans <= 7.5\nmse = 0.25\nsamples = 6\nvalue = 0.5"] ;
912 -> 918 ;
919 [label="mse = 0.0\nsamples = 2\nvalue = 0.0"] ;
918 -> 919 ;
920 [label="MonthlyIncome <= 3707.0\nmse = 0.188\nsamples = 4\nvalue = 0.75"] ;
918 -> 920 ;
921 [label="mse = 0.0\nsamples = 3\nvalue = 1.0"] ;
920 -> 921 ;
922 [label="mse = 0.0\nsamples = 1\nvalue = 0.0"] ;
920 -> 922 ;
923 [label="RevolvingUtilizationOfUnsecuredLines <= 0.003\nmse = 0.219\nsamples = 80\nvalue = 0.325"] ;
911 -> 923 ;
924 [label="NumberOfOpenCreditLinesAndLoans <= 1.5\nmse = 0.173\nsamples = 9\nvalue = 0.778"] ;
923 -> 924 ;
925 [label="mse = 0.0\nsamples = 1\nvalue = 0.0"] ;
924 -> 925 ;
926 [label="MonthlyIncome <= 6285.111\nmse = 0.109\nsamples = 8\nvalue = 0.875"] ;
924 -> 926 ;
927 [label="MonthlyIncome <= 5500.5\nmse = 0.25\nsamples = 2\nvalue = 0.5"] ;
926 -> 927 ;
928 [label="mse = 0.0\nsamples = 1\nvalue = 1.0"] ;
927 -> 928 ;
929 [label="mse = 0.0\nsamples = 1\nvalue = 0.0"] ;
927 -> 929 ;
930 [label="mse = 0.0\nsamples = 6\nvalue = 1.0"] ;
926 -> 930 ;
931 [label="NumberOfDependents <= 2.5\nmse = 0.196\nsamples = 71\nvalue = 0.268"] ;
923 -> 931 ;
932 [label="DebtRatio <= 0.107\nmse = 0.168\nsamples = 61\nvalue = 0.213"] ;
931 -> 932 ;
933 [label="age <= 47.5\nmse = 0.25\nsamples = 8\nvalue = 0.5"] ;
932 -> 933 ;
934 [label="mse = 0.0\nsamples = 3\nvalue = 0.0"] ;
933 -> 934 ;
935 [label="RevolvingUtilizationOfUnsecuredLines <= 0.138\nmse = 0.16\nsamples = 5\nvalue = 0.8"] ;
933 -> 935 ;
936 [label="mse = 0.0\nsamples = 3\nvalue = 1.0"] ;
935 -> 936 ;
937 [label="RevolvingUtilizationOfUnsecuredLines <= 0.269\nmse = 0.25\nsamples = 2\nvalue = 0.5"] ;
935 -> 937 ;
938 [label="mse = 0.0\nsamples = 1\nvalue = 0.0"] ;
937 -> 938 ;
939 [label="mse = 0.0\nsamples = 1\nvalue = 1.0"] ;
937 -> 939 ;
940 [label="DebtRatio <= 551.0\nmse = 0.141\nsamples = 53\nvalue = 0.17"] ;
932 -> 940 ;
941 [label="age <= 63.5\nmse = 0.09\nsamples = 40\nvalue = 0.1"] ;
940 -> 941 ;
942 [label="age <= 35.5\nmse = 0.073\nsamples = 38\nvalue = 0.079"] ;
941 -> 942 ;
943 [label="RevolvingUtilizationOfUnsecuredLines <= 0.279\nmse = 0.173\nsamples = 9\nvalue = 0.222"] ;
942 -> 943 ;
944 [label="RevolvingUtilizationOfUnsecuredLines <= 0.103\nmse = 0.25\nsamples = 4\nvalue = 0.5"] ;
943 -> 944 ;
945 [label="mse = 0.0\nsamples = 1\nvalue = 0.0"] ;
944 -> 945 ;
946 [label="mse = 0.222\nsamples = 3\nvalue = 0.667"] ;
944 -> 946 ;
947 [label="mse = 0.0\nsamples = 5\nvalue = 0.0"] ;
943 -> 947 ;
948 [label="MonthlyIncome <= 5866.5\nmse = 0.033\nsamples = 29\nvalue = 0.034"] ;
942 -> 948 ;
949 [label="MonthlyIncome <= 5583.0\nmse = 0.139\nsamples = 6\nvalue = 0.167"] ;
948 -> 949 ;
950 [label="mse = 0.0\nsamples = 5\nvalue = 0.0"] ;
949 -> 950 ;
951 [label="mse = 0.0\nsamples = 1\nvalue = 1.0"] ;
949 -> 951 ;
952 [label="mse = 0.0\nsamples = 23\nvalue = 0.0"] ;
948 -> 952 ;
953 [label="DebtRatio <= 0.33\nmse = 0.25\nsamples = 2\nvalue = 0.5"] ;
941 -> 953 ;
954 [label="mse = 0.0\nsamples = 1\nvalue = 0.0"] ;
953 -> 954 ;
955 [label="mse = 0.0\nsamples = 1\nvalue = 1.0"] ;
953 -> 955 ;
956 [label="RevolvingUtilizationOfUnsecuredLines <= 0.354\nmse = 0.237\nsamples = 13\nvalue = 0.385"] ;
940 -> 956 ;
957 [label="mse = 0.0\nsamples = 6\nvalue = 0.0"] ;
956 -> 957 ;
958 [label="NumberOfOpenCreditLinesAndLoans <= 10.5\nmse = 0.204\nsamples = 7\nvalue = 0.714"] ;
956 -> 958 ;
959 [label="age <= 34.5\nmse = 0.139\nsamples = 6\nvalue = 0.833"] ;
958 -> 959 ;
960 [label="mse = 0.0\nsamples = 1\nvalue = 0.0"] ;
959 -> 960 ;
961 [label="mse = 0.0\nsamples = 5\nvalue = 1.0"] ;
959 -> 961 ;
962 [label="mse = 0.0\nsamples = 1\nvalue = 0.0"] ;
958 -> 962 ;
963 [label="MonthlyIncome <= 8640.0\nmse = 0.24\nsamples = 10\nvalue = 0.6"] ;
931 -> 963 ;
964 [label="NumberOfOpenCreditLinesAndLoans <= 10.5\nmse = 0.122\nsamples = 7\nvalue = 0.857"] ;
963 -> 964 ;
965 [label="mse = 0.0\nsamples = 5\nvalue = 1.0"] ;
964 -> 965 ;
966 [label="age <= 40.5\nmse = 0.25\nsamples = 2\nvalue = 0.5"] ;
964 -> 966 ;
967 [label="mse = 0.0\nsamples = 1\nvalue = 0.0"] ;
966 -> 967 ;
968 [label="mse = 0.0\nsamples = 1\nvalue = 1.0"] ;
966 -> 968 ;
969 [label="mse = 0.0\nsamples = 3\nvalue = 0.0"] ;
963 -> 969 ;
970 [label="NumberOfTime60-89DaysPastDueNotWorse <= 0.5\nmse = 0.078\nsamples = 12082\nvalue = 0.086"] ;
2 -> 970 ;
971 [label="NumberOfTime30-59DaysPastDueNotWorse <= 1.5\nmse = 0.067\nsamples = 11055\nvalue = 0.073"] ;
970 -> 971 ;
972 [label="RevolvingUtilizationOfUnsecuredLines <= 0.216\nmse = 0.054\nsamples = 8662\nvalue = 0.057"] ;
971 -> 972 ;
973 [label="NumberRealEstateLoansOrLines <= 3.5\nmse = 0.041\nsamples = 5339\nvalue = 0.043"] ;
972 -> 973 ;
974 [label="age <= 94.5\nmse = 0.038\nsamples = 5114\nvalue = 0.039"] ;
973 -> 974 ;
975 [label="NumberOfDependents <= 0.879\nmse = 0.037\nsamples = 5111\nvalue = 0.039"] ;
974 -> 975 ;
976 [label="age <= 55.5\nmse = 0.031\nsamples = 2995\nvalue = 0.032"] ;
975 -> 976 ;
977 [label="NumberOfOpenCreditLinesAndLoans <= 13.5\nmse = 0.039\nsamples = 1384\nvalue = 0.041"] ;
976 -> 977 ;
978 [label="NumberOfOpenCreditLinesAndLoans <= 7.5\nmse = 0.034\nsamples = 1174\nvalue = 0.035"] ;
977 -> 978 ;
979 [label="RevolvingUtilizationOfUnsecuredLines <= 0.196\nmse = 0.046\nsamples = 640\nvalue = 0.048"] ;
978 -> 979 ;
980 [label="NumberOfOpenCreditLinesAndLoans <= 6.5\nmse = 0.042\nsamples = 613\nvalue = 0.044"] ;
979 -> 980 ;
981 [label="age <= 53.5\nmse = 0.033\nsamples = 490\nvalue = 0.035"] ;
980 -> 981 ;
982 [label="mse = 0.027\nsamples = 461\nvalue = 0.028"] ;
981 -> 982 ;
983 [label="mse = 0.119\nsamples = 29\nvalue = 0.138"] ;
981 -> 983 ;
984 [label="RevolvingUtilizationOfUnsecuredLines <= 0.085\nmse = 0.075\nsamples = 123\nvalue = 0.081"] ;
980 -> 984 ;
985 [label="mse = 0.1\nsamples = 89\nvalue = 0.112"] ;
984 -> 985 ;
986 [label="mse = 0.0\nsamples = 34\nvalue = 0.0"] ;
984 -> 986 ;
987 [label="RevolvingUtilizationOfUnsecuredLines <= 0.197\nmse = 0.126\nsamples = 27\nvalue = 0.148"] ;
979 -> 987 ;
988 [label="mse = 0.0\nsamples = 2\nvalue = 1.0"] ;
987 -> 988 ;
989 [label="MonthlyIncome <= 8150.0\nmse = 0.074\nsamples = 25\nvalue = 0.08"] ;
987 -> 989 ;
990 [label="mse = 0.042\nsamples = 23\nvalue = 0.043"] ;
989 -> 990 ;
991 [label="mse = 0.25\nsamples = 2\nvalue = 0.5"] ;
989 -> 991 ;
992 [label="RevolvingUtilizationOfUnsecuredLines <= 0.076\nmse = 0.018\nsamples = 534\nvalue = 0.019"] ;
978 -> 992 ;
993 [label="age <= 51.5\nmse = 0.006\nsamples = 316\nvalue = 0.006"] ;
992 -> 993 ;
994 [label="mse = 0.0\nsamples = 249\nvalue = 0.0"] ;
993 -> 994 ;
995 [label="age <= 52.5\nmse = 0.029\nsamples = 67\nvalue = 0.03"] ;
993 -> 995 ;
996 [label="mse = 0.094\nsamples = 19\nvalue = 0.105"] ;
995 -> 996 ;
997 [label="mse = 0.0\nsamples = 48\nvalue = 0.0"] ;
995 -> 997 ;
998 [label="RevolvingUtilizationOfUnsecuredLines <= 0.077\nmse = 0.035\nsamples = 218\nvalue = 0.037"] ;
992 -> 998 ;
999 [label="mse = 0.0\nsamples = 1\nvalue = 1.0"] ;
998 -> 999 ;
1000 [label="NumberRealEstateLoansOrLines <= 2.5\nmse = 0.031\nsamples = 217\nvalue = 0.032"] ;
998 -> 1000 ;
1001 [label="mse = 0.028\nsamples = 212\nvalue = 0.028"] ;
1000 -> 1001 ;
1002 [label="mse = 0.16\nsamples = 5\nvalue = 0.2"] ;
1000 -> 1002 ;
1003 [label="MonthlyIncome <= 11050.0\nmse = 0.07\nsamples = 210\nvalue = 0.076"] ;
977 -> 1003 ;
1004 [label="DebtRatio <= 0.069\nmse = 0.063\nsamples = 194\nvalue = 0.067"] ;
1003 -> 1004 ;
1005 [label="NumberOfOpenCreditLinesAndLoans <= 17.0\nmse = 0.25\nsamples = 2\nvalue = 0.5"] ;
1004 -> 1005 ;
1006 [label="mse = 0.0\nsamples = 1\nvalue = 0.0"] ;
1005 -> 1006 ;
1007 [label="mse = 0.0\nsamples = 1\nvalue = 1.0"] ;
1005 -> 1007 ;
1008 [label="DebtRatio <= 2492.5\nmse = 0.059\nsamples = 192\nvalue = 0.062"] ;
1004 -> 1008 ;
1009 [label="NumberOfDependents <= 0.379\nmse = 0.049\nsamples = 174\nvalue = 0.052"] ;
1008 -> 1009 ;
1010 [label="mse = 0.045\nsamples = 171\nvalue = 0.047"] ;
1009 -> 1010 ;
1011 [label="mse = 0.222\nsamples = 3\nvalue = 0.333"] ;
1009 -> 1011 ;
1012 [label="DebtRatio <= 2542.5\nmse = 0.139\nsamples = 18\nvalue = 0.167"] ;
1008 -> 1012 ;
1013 [label="mse = 0.0\nsamples = 1\nvalue = 1.0"] ;
1012 -> 1013 ;
1014 [label="mse = 0.104\nsamples = 17\nvalue = 0.118"] ;
1012 -> 1014 ;
1015 [label="DebtRatio <= 0.295\nmse = 0.152\nsamples = 16\nvalue = 0.188"] ;
1003 -> 1015 ;
1016 [label="mse = 0.0\nsamples = 11\nvalue = 0.0"] ;
1015 -> 1016 ;
1017 [label="DebtRatio <= 0.482\nmse = 0.24\nsamples = 5\nvalue = 0.6"] ;
1015 -> 1017 ;
1018 [label="mse = 0.0\nsamples = 3\nvalue = 1.0"] ;
1017 -> 1018 ;
1019 [label="mse = 0.0\nsamples = 2\nvalue = 0.0"] ;
1017 -> 1019 ;
1020 [label="age <= 81.5\nmse = 0.024\nsamples = 1611\nvalue = 0.025"] ;
976 -> 1020 ;
1021 [label="age <= 71.5\nmse = 0.021\nsamples = 1484\nvalue = 0.022"] ;
1020 -> 1021 ;
1022 [label="age <= 69.5\nmse = 0.025\nsamples = 1161\nvalue = 0.026"] ;
1021 -> 1022 ;
1023 [label="MonthlyIncome <= 4760.0\nmse = 0.021\nsamples = 1068\nvalue = 0.022"] ;
1022 -> 1023 ;
1024 [label="MonthlyIncome <= 4747.0\nmse = 0.035\nsamples = 301\nvalue = 0.037"] ;
1023 -> 1024 ;
1025 [label="mse = 0.032\nsamples = 300\nvalue = 0.033"] ;
1024 -> 1025 ;
1026 [label="mse = 0.0\nsamples = 1\nvalue = 1.0"] ;
1024 -> 1026 ;
1027 [label="DebtRatio <= 5187.5\nmse = 0.015\nsamples = 767\nvalue = 0.016"] ;
1023 -> 1027 ;
1028 [label="mse = 0.014\nsamples = 759\nvalue = 0.014"] ;
1027 -> 1028 ;
1029 [label="mse = 0.109\nsamples = 8\nvalue = 0.125"] ;
1027 -> 1029 ;
1030 [label="NumberOfOpenCreditLinesAndLoans <= 31.0\nmse = 0.07\nsamples = 93\nvalue = 0.075"] ;
1022 -> 1030 ;
1031 [label="NumberRealEstateLoansOrLines <= 0.5\nmse = 0.061\nsamples = 92\nvalue = 0.065"] ;
1030 -> 1031 ;
1032 [label="mse = 0.107\nsamples = 33\nvalue = 0.121"] ;
1031 -> 1032 ;
1033 [label="mse = 0.033\nsamples = 59\nvalue = 0.034"] ;
1031 -> 1033 ;
1034 [label="mse = 0.0\nsamples = 1\nvalue = 1.0"] ;
1030 -> 1034 ;
1035 [label="RevolvingUtilizationOfUnsecuredLines <= 0.0\nmse = 0.006\nsamples = 323\nvalue = 0.006"] ;
1021 -> 1035 ;
1036 [label="MonthlyIncome <= 3481.0\nmse = 0.029\nsamples = 33\nvalue = 0.03"] ;
1035 -> 1036 ;
1037 [label="MonthlyIncome <= 2936.0\nmse = 0.109\nsamples = 8\nvalue = 0.125"] ;
1036 -> 1037 ;
1038 [label="mse = 0.0\nsamples = 7\nvalue = 0.0"] ;
1037 -> 1038 ;
1039 [label="mse = 0.0\nsamples = 1\nvalue = 1.0"] ;
1037 -> 1039 ;
1040 [label="mse = 0.0\nsamples = 25\nvalue = 0.0"] ;
1036 -> 1040 ;
1041 [label="NumberOfOpenCreditLinesAndLoans <= 13.5\nmse = 0.003\nsamples = 290\nvalue = 0.003"] ;
1035 -> 1041 ;
1042 [label="mse = 0.0\nsamples = 214\nvalue = 0.0"] ;
1041 -> 1042 ;
1043 [label="NumberOfOpenCreditLinesAndLoans <= 14.5\nmse = 0.013\nsamples = 76\nvalue = 0.013"] ;
1041 -> 1043 ;
1044 [label="mse = 0.062\nsamples = 15\nvalue = 0.067"] ;
1043 -> 1044 ;
1045 [label="mse = 0.0\nsamples = 61\nvalue = 0.0"] ;
1043 -> 1045 ;
1046 [label="RevolvingUtilizationOfUnsecuredLines <= 0.206\nmse = 0.059\nsamples = 127\nvalue = 0.063"] ;
1020 -> 1046 ;
1047 [label="DebtRatio <= 799.5\nmse = 0.052\nsamples = 126\nvalue = 0.056"] ;
1046 -> 1047 ;
1048 [label="MonthlyIncome <= 4688.0\nmse = 0.034\nsamples = 115\nvalue = 0.035"] ;
1047 -> 1048 ;
1049 [label="mse = 0.0\nsamples = 53\nvalue = 0.0"] ;
1048 -> 1049 ;
1050 [label="MonthlyIncome <= 4723.0\nmse = 0.06\nsamples = 62\nvalue = 0.065"] ;
1048 -> 1050 ;
1051 [label="mse = 0.0\nsamples = 1\nvalue = 1.0"] ;
1050 -> 1051 ;
1052 [label="mse = 0.047\nsamples = 61\nvalue = 0.049"] ;
1050 -> 1052 ;
1053 [label="DebtRatio <= 825.0\nmse = 0.198\nsamples = 11\nvalue = 0.273"] ;
1047 -> 1053 ;
1054 [label="mse = 0.0\nsamples = 1\nvalue = 1.0"] ;
1053 -> 1054 ;
1055 [label="NumberOfOpenCreditLinesAndLoans <= 27.5\nmse = 0.16\nsamples = 10\nvalue = 0.2"] ;
1053 -> 1055 ;
1056 [label="mse = 0.099\nsamples = 9\nvalue = 0.111"] ;
1055 -> 1056 ;
1057 [label="mse = 0.0\nsamples = 1\nvalue = 1.0"] ;
1055 -> 1057 ;
1058 [label="mse = 0.0\nsamples = 1\nvalue = 1.0"] ;
1046 -> 1058 ;
1059 [label="MonthlyIncome <= 2315.5\nmse = 0.046\nsamples = 2116\nvalue = 0.048"] ;
975 -> 1059 ;
1060 [label="NumberRealEstateLoansOrLines <= 2.5\nmse = 0.1\nsamples = 116\nvalue = 0.112"] ;
1059 -> 1060 ;
1061 [label="MonthlyIncome <= 493.0\nmse = 0.082\nsamples = 111\nvalue = 0.09"] ;
1060 -> 1061 ;
1062 [label="RevolvingUtilizationOfUnsecuredLines <= 0.179\nmse = 0.026\nsamples = 37\nvalue = 0.027"] ;
1061 -> 1062 ;
1063 [label="mse = 0.0\nsamples = 33\nvalue = 0.0"] ;
1062 -> 1063 ;
1064 [label="RevolvingUtilizationOfUnsecuredLines <= 0.188\nmse = 0.188\nsamples = 4\nvalue = 0.25"] ;
1062 -> 1064 ;
1065 [label="mse = 0.0\nsamples = 1\nvalue = 1.0"] ;
1064 -> 1065 ;
1066 [label="mse = 0.0\nsamples = 3\nvalue = 0.0"] ;
1064 -> 1066 ;
1067 [label="DebtRatio <= 5.707\nmse = 0.107\nsamples = 74\nvalue = 0.122"] ;
1061 -> 1067 ;
1068 [label="DebtRatio <= 1.114\nmse = 0.088\nsamples = 72\nvalue = 0.097"] ;
1067 -> 1068 ;
1069 [label="DebtRatio <= 1.097\nmse = 0.118\nsamples = 51\nvalue = 0.137"] ;
1068 -> 1069 ;
1070 [label="mse = 0.106\nsamples = 50\nvalue = 0.12"] ;
1069 -> 1070 ;
1071 [label="mse = 0.0\nsamples = 1\nvalue = 1.0"] ;
1069 -> 1071 ;
1072 [label="mse = 0.0\nsamples = 21\nvalue = 0.0"] ;
1068 -> 1072 ;
1073 [label="mse = 0.0\nsamples = 2\nvalue = 1.0"] ;
1067 -> 1073 ;
1074 [label="age <= 48.0\nmse = 0.24\nsamples = 5\nvalue = 0.6"] ;
1060 -> 1074 ;
1075 [label="mse = 0.0\nsamples = 2\nvalue = 0.0"] ;
1074 -> 1075 ;
1076 [label="mse = 0.0\nsamples = 3\nvalue = 1.0"] ;
1074 -> 1076 ;
1077 [label="NumberOfOpenCreditLinesAndLoans <= 38.0\nmse = 0.043\nsamples = 2000\nvalue = 0.044"] ;
1059 -> 1077 ;
1078 [label="MonthlyIncome <= 9730.0\nmse = 0.042\nsamples = 1997\nvalue = 0.044"] ;
1077 -> 1078 ;
1079 [label="MonthlyIncome <= 9709.0\nmse = 0.048\nsamples = 1491\nvalue = 0.05"] ;
1078 -> 1079 ;
1080 [label="MonthlyIncome <= 9658.0\nmse = 0.047\nsamples = 1490\nvalue = 0.05"] ;
1079 -> 1080 ;
1081 [label="RevolvingUtilizationOfUnsecuredLines <= 0.061\nmse = 0.046\nsamples = 1483\nvalue = 0.049"] ;
1080 -> 1081 ;
1082 [label="mse = 0.035\nsamples = 750\nvalue = 0.036"] ;
1081 -> 1082 ;
1083 [label="mse = 0.058\nsamples = 733\nvalue = 0.061"] ;
1081 -> 1083 ;
1084 [label="DebtRatio <= 0.237\nmse = 0.204\nsamples = 7\nvalue = 0.286"] ;
1080 -> 1084 ;
1085 [label="mse = 0.222\nsamples = 3\nvalue = 0.667"] ;
1084 -> 1085 ;
1086 [label="mse = 0.0\nsamples = 4\nvalue = 0.0"] ;
1084 -> 1086 ;
1087 [label="mse = 0.0\nsamples = 1\nvalue = 1.0"] ;
1079 -> 1087 ;
1088 [label="DebtRatio <= 1.147\nmse = 0.025\nsamples = 506\nvalue = 0.026"] ;
1078 -> 1088 ;
1089 [label="DebtRatio <= 0.003\nmse = 0.023\nsamples = 504\nvalue = 0.024"] ;
1088 -> 1089 ;
1090 [label="DebtRatio <= 0.003\nmse = 0.16\nsamples = 5\nvalue = 0.2"] ;
1089 -> 1090 ;
1091 [label="mse = 0.0\nsamples = 4\nvalue = 0.0"] ;
1090 -> 1091 ;
1092 [label="mse = 0.0\nsamples = 1\nvalue = 1.0"] ;
1090 -> 1092 ;
1093 [label="age <= 37.5\nmse = 0.022\nsamples = 499\nvalue = 0.022"] ;
1089 -> 1093 ;
1094 [label="mse = 0.083\nsamples = 22\nvalue = 0.091"] ;
1093 -> 1094 ;
1095 [label="mse = 0.019\nsamples = 477\nvalue = 0.019"] ;
1093 -> 1095 ;
1096 [label="RevolvingUtilizationOfUnsecuredLines <= 0.024\nmse = 0.25\nsamples = 2\nvalue = 0.5"] ;
1088 -> 1096 ;
1097 [label="mse = 0.0\nsamples = 1\nvalue = 1.0"] ;
1096 -> 1097 ;
1098 [label="mse = 0.0\nsamples = 1\nvalue = 0.0"] ;
1096 -> 1098 ;
1099 [label="DebtRatio <= 0.181\nmse = 0.222\nsamples = 3\nvalue = 0.333"] ;
1077 -> 1099 ;
1100 [label="mse = 0.0\nsamples = 1\nvalue = 1.0"] ;
1099 -> 1100 ;
1101 [label="mse = 0.0\nsamples = 2\nvalue = 0.0"] ;
1099 -> 1101 ;
1102 [label="RevolvingUtilizationOfUnsecuredLines <= 0.074\nmse = 0.222\nsamples = 3\nvalue = 0.667"] ;
974 -> 1102 ;
1103 [label="mse = 0.0\nsamples = 1\nvalue = 0.0"] ;
1102 -> 1103 ;
1104 [label="mse = 0.0\nsamples = 2\nvalue = 1.0"] ;
1102 -> 1104 ;
1105 [label="age <= 34.5\nmse = 0.102\nsamples = 225\nvalue = 0.116"] ;
973 -> 1105 ;
1106 [label="NumberOfOpenCreditLinesAndLoans <= 7.0\nmse = 0.222\nsamples = 3\nvalue = 0.667"] ;
1105 -> 1106 ;
1107 [label="mse = 0.0\nsamples = 1\nvalue = 0.0"] ;
1106 -> 1107 ;
1108 [label="mse = 0.0\nsamples = 2\nvalue = 1.0"] ;
1106 -> 1108 ;
1109 [label="NumberOfOpenCreditLinesAndLoans <= 34.0\nmse = 0.096\nsamples = 222\nvalue = 0.108"] ;
1105 -> 1109 ;
1110 [label="RevolvingUtilizationOfUnsecuredLines <= 0.213\nmse = 0.093\nsamples = 221\nvalue = 0.104"] ;
1109 -> 1110 ;
1111 [label="DebtRatio <= 1.008\nmse = 0.09\nsamples = 220\nvalue = 0.1"] ;
1110 -> 1111 ;
1112 [label="MonthlyIncome <= 5753.0\nmse = 0.052\nsamples = 144\nvalue = 0.056"] ;
1111 -> 1112 ;
1113 [label="MonthlyIncome <= 5016.5\nmse = 0.178\nsamples = 13\nvalue = 0.231"] ;
1112 -> 1113 ;
1114 [label="MonthlyIncome <= 3189.0\nmse = 0.083\nsamples = 11\nvalue = 0.091"] ;
1113 -> 1114 ;
1115 [label="RevolvingUtilizationOfUnsecuredLines <= 0.066\nmse = 0.25\nsamples = 2\nvalue = 0.5"] ;
1114 -> 1115 ;
1116 [label="mse = 0.0\nsamples = 1\nvalue = 1.0"] ;
1115 -> 1116 ;
1117 [label="mse = 0.0\nsamples = 1\nvalue = 0.0"] ;
1115 -> 1117 ;
1118 [label="mse = 0.0\nsamples = 9\nvalue = 0.0"] ;
1114 -> 1118 ;
1119 [label="mse = 0.0\nsamples = 2\nvalue = 1.0"] ;
1113 -> 1119 ;
1120 [label="NumberRealEstateLoansOrLines <= 12.5\nmse = 0.037\nsamples = 131\nvalue = 0.038"] ;
1112 -> 1120 ;
1121 [label="DebtRatio <= 0.18\nmse = 0.03\nsamples = 129\nvalue = 0.031"] ;
1120 -> 1121 ;
1122 [label="NumberOfDependents <= 1.0\nmse = 0.222\nsamples = 3\nvalue = 0.333"] ;
1121 -> 1122 ;
1123 [label="mse = 0.0\nsamples = 1\nvalue = 1.0"] ;
1122 -> 1123 ;
1124 [label="mse = 0.0\nsamples = 2\nvalue = 0.0"] ;
1122 -> 1124 ;
1125 [label="age <= 79.5\nmse = 0.023\nsamples = 126\nvalue = 0.024"] ;
1121 -> 1125 ;
1126 [label="mse = 0.016\nsamples = 123\nvalue = 0.016"] ;
1125 -> 1126 ;
1127 [label="mse = 0.222\nsamples = 3\nvalue = 0.333"] ;
1125 -> 1127 ;
1128 [label="NumberRealEstateLoansOrLines <= 13.5\nmse = 0.25\nsamples = 2\nvalue = 0.5"] ;
1120 -> 1128 ;
1129 [label="mse = 0.0\nsamples = 1\nvalue = 1.0"] ;
1128 -> 1129 ;
1130 [label="mse = 0.0\nsamples = 1\nvalue = 0.0"] ;
1128 -> 1130 ;
1131 [label="DebtRatio <= 1.041\nmse = 0.15\nsamples = 76\nvalue = 0.184"] ;
1111 -> 1131 ;
1132 [label="DebtRatio <= 1.025\nmse = 0.24\nsamples = 5\nvalue = 0.6"] ;
1131 -> 1132 ;
1133 [label="DebtRatio <= 1.016\nmse = 0.222\nsamples = 3\nvalue = 0.333"] ;
1132 -> 1133 ;
1134 [label="mse = 0.0\nsamples = 1\nvalue = 1.0"] ;
1133 -> 1134 ;
1135 [label="mse = 0.0\nsamples = 2\nvalue = 0.0"] ;
1133 -> 1135 ;
1136 [label="mse = 0.0\nsamples = 2\nvalue = 1.0"] ;
1132 -> 1136 ;
1137 [label="RevolvingUtilizationOfUnsecuredLines <= 0.082\nmse = 0.131\nsamples = 71\nvalue = 0.155"] ;
1131 -> 1137 ;
1138 [label="age <= 46.0\nmse = 0.065\nsamples = 43\nvalue = 0.07"] ;
1137 -> 1138 ;
1139 [label="DebtRatio <= 1.379\nmse = 0.173\nsamples = 9\nvalue = 0.222"] ;
1138 -> 1139 ;
1140 [label="mse = 0.0\nsamples = 1\nvalue = 1.0"] ;
1139 -> 1140 ;
1141 [label="mse = 0.109\nsamples = 8\nvalue = 0.125"] ;
1139 -> 1141 ;
1142 [label="RevolvingUtilizationOfUnsecuredLines <= 0.0\nmse = 0.029\nsamples = 34\nvalue = 0.029"] ;
1138 -> 1142 ;
1143 [label="mse = 0.122\nsamples = 7\nvalue = 0.143"] ;
1142 -> 1143 ;
1144 [label="mse = 0.0\nsamples = 27\nvalue = 0.0"] ;
1142 -> 1144 ;
1145 [label="RevolvingUtilizationOfUnsecuredLines <= 0.138\nmse = 0.204\nsamples = 28\nvalue = 0.286"] ;
1137 -> 1145 ;
1146 [label="DebtRatio <= 12397.0\nmse = 0.24\nsamples = 10\nvalue = 0.6"] ;
1145 -> 1146 ;
1147 [label="mse = 0.122\nsamples = 7\nvalue = 0.857"] ;
1146 -> 1147 ;
1148 [label="mse = 0.0\nsamples = 3\nvalue = 0.0"] ;
1146 -> 1148 ;
1149 [label="NumberRealEstateLoansOrLines <= 14.0\nmse = 0.099\nsamples = 18\nvalue = 0.111"] ;
1145 -> 1149 ;
1150 [label="mse = 0.055\nsamples = 17\nvalue = 0.059"] ;
1149 -> 1150 ;
1151 [label="mse = 0.0\nsamples = 1\nvalue = 1.0"] ;
1149 -> 1151 ;
1152 [label="mse = 0.0\nsamples = 1\nvalue = 1.0"] ;
1110 -> 1152 ;
1153 [label="mse = 0.0\nsamples = 1\nvalue = 1.0"] ;
1109 -> 1153 ;
1154 [label="DebtRatio <= 7335.5\nmse = 0.074\nsamples = 3323\nvalue = 0.08"] ;
972 -> 1154 ;
1155 [label="NumberRealEstateLoansOrLines <= 11.5\nmse = 0.073\nsamples = 3310\nvalue = 0.079"] ;
1154 -> 1155 ;
1156 [label="RevolvingUtilizationOfUnsecuredLines <= 0.216\nmse = 0.072\nsamples = 3303\nvalue = 0.078"] ;
1155 -> 1156 ;
1157 [label="mse = 0.0\nsamples = 1\nvalue = 1.0"] ;
1156 -> 1157 ;
1158 [label="DebtRatio <= 0.788\nmse = 0.072\nsamples = 3302\nvalue = 0.078"] ;
1156 -> 1158 ;
1159 [label="age <= 89.5\nmse = 0.065\nsamples = 2549\nvalue = 0.07"] ;
1158 -> 1159 ;
1160 [label="MonthlyIncome <= 710.0\nmse = 0.065\nsamples = 2548\nvalue = 0.069"] ;
1159 -> 1160 ;
1161 [label="mse = 0.0\nsamples = 1\nvalue = 1.0"] ;
1160 -> 1161 ;
1162 [label="age <= 30.5\nmse = 0.064\nsamples = 2547\nvalue = 0.069"] ;
1160 -> 1162 ;
1163 [label="RevolvingUtilizationOfUnsecuredLines <= 0.383\nmse = 0.109\nsamples = 168\nvalue = 0.125"] ;
1162 -> 1163 ;
1164 [label="NumberOfOpenCreditLinesAndLoans <= 8.5\nmse = 0.074\nsamples = 87\nvalue = 0.08"] ;
1163 -> 1164 ;
1165 [label="mse = 0.042\nsamples = 69\nvalue = 0.043"] ;
1164 -> 1165 ;
1166 [label="mse = 0.173\nsamples = 18\nvalue = 0.222"] ;
1164 -> 1166 ;
1167 [label="RevolvingUtilizationOfUnsecuredLines <= 0.403\nmse = 0.143\nsamples = 81\nvalue = 0.173"] ;
1163 -> 1167 ;
1168 [label="mse = 0.25\nsamples = 8\nvalue = 0.5"] ;
1167 -> 1168 ;
1169 [label="mse = 0.118\nsamples = 73\nvalue = 0.137"] ;
1167 -> 1169 ;
1170 [label="age <= 38.5\nmse = 0.061\nsamples = 2379\nvalue = 0.065"] ;
1162 -> 1170 ;
1171 [label="MonthlyIncome <= 2190.0\nmse = 0.032\nsamples = 366\nvalue = 0.033"] ;
1170 -> 1171 ;
1172 [label="mse = 0.133\nsamples = 19\nvalue = 0.158"] ;
1171 -> 1172 ;
1173 [label="mse = 0.025\nsamples = 347\nvalue = 0.026"] ;
1171 -> 1173 ;
1174 [label="MonthlyIncome <= 16549.5\nmse = 0.066\nsamples = 2013\nvalue = 0.071"] ;
1170 -> 1174 ;
1175 [label="mse = 0.069\nsamples = 1898\nvalue = 0.075"] ;
1174 -> 1175 ;
1176 [label="mse = 0.009\nsamples = 115\nvalue = 0.009"] ;
1174 -> 1176 ;
1177 [label="mse = 0.0\nsamples = 1\nvalue = 1.0"] ;
1159 -> 1177 ;
1178 [label="DebtRatio <= 1209.5\nmse = 0.095\nsamples = 753\nvalue = 0.106"] ;
1158 -> 1178 ;
1179 [label="MonthlyIncome <= 4496.5\nmse = 0.123\nsamples = 439\nvalue = 0.144"] ;
1178 -> 1179 ;
1180 [label="DebtRatio <= 1.191\nmse = 0.081\nsamples = 224\nvalue = 0.089"] ;
1179 -> 1180 ;
1181 [label="NumberOfDependents <= 2.5\nmse = 0.038\nsamples = 126\nvalue = 0.04"] ;
1180 -> 1181 ;
1182 [label="age <= 72.5\nmse = 0.024\nsamples = 122\nvalue = 0.025"] ;
1181 -> 1182 ;
1183 [label="mse = 0.017\nsamples = 118\nvalue = 0.017"] ;
1182 -> 1183 ;
1184 [label="mse = 0.188\nsamples = 4\nvalue = 0.25"] ;
1182 -> 1184 ;
1185 [label="age <= 38.5\nmse = 0.25\nsamples = 4\nvalue = 0.5"] ;
1181 -> 1185 ;
1186 [label="mse = 0.0\nsamples = 2\nvalue = 0.0"] ;
1185 -> 1186 ;
1187 [label="mse = 0.0\nsamples = 2\nvalue = 1.0"] ;
1185 -> 1187 ;
1188 [label="DebtRatio <= 1.537\nmse = 0.13\nsamples = 98\nvalue = 0.153"] ;
1180 -> 1188 ;
1189 [label="DebtRatio <= 1.506\nmse = 0.214\nsamples = 29\nvalue = 0.31"] ;
1188 -> 1189 ;
1190 [label="mse = 0.178\nsamples = 26\nvalue = 0.231"] ;
1189 -> 1190 ;
1191 [label="mse = 0.0\nsamples = 3\nvalue = 1.0"] ;
1189 -> 1191 ;
1192 [label="RevolvingUtilizationOfUnsecuredLines <= 0.219\nmse = 0.079\nsamples = 69\nvalue = 0.087"] ;
1188 -> 1192 ;
1193 [label="mse = 0.0\nsamples = 1\nvalue = 1.0"] ;
1192 -> 1193 ;
